0.0
0.00313960039284
0.0836804353251
0.097429692815
-0.00388434419017
-0.00672531290686
0.103479962459
-0.00731814997683
-0.0093417767638
0.103758906198
-0.0243803641653
0.00744149368542
0.0920556877547
-0.0156267274501
0.0103910754133
0.0913838766752
-0.0105435025052
0.00597966154785
0.108056464009
-0.0121631285892
-0.0090732997015
0.0
-0.00186453012404
0.088684565842
0.0787641375475
-0.0171015638975
0.0251574620679
0.0484267468664
0.0239803679027
0.0144129209488
0.0484944226147
0.0212898229257
0.0170357901776
0.05427003786
0.0257803622038
0.00676963565407
0.062683093805
0.00726068169172
0.0168762602212
0.0915329783687
0.00122844739492
-0.00594139004567
0.0148332096058
-0.00677445683728
0.0787612829494
0.0798463026941
0.00218173953719
0.00479199348666
0.0354565482298
0.060263537341
-0.00890004985282
0.0286804438378
0.073112036505
-0.0149724446249
0.0352412423869
0.0632908941457
-0.0117121008147
0.0664204505884
0.0253700470283
-0.00497046189877
0.0825084252677
-0.00446004332528
0.00877165377556
0.0675151445928
0.00408458068246
0.0152203104427
0.0543093307033
-0.00123503332642
0.0337457383411
0.0281518785441
0.0432949782368
0.0153731789371
0.0013589681694
0.0870807567197
-0.00161968917117
0.0250047337276
0.0573655937064
0.00444970828398
0.0697264451451
0.0168225037977
0.000271086775157
0.100913459097
-0.000524568524428
-0.0135688548545
0.07200476051
0.00671676780902
0.00809850739894
0.0684318084501
-0.00911631552991
0.0275045427977
0.0301110530045
0.0506539468474
0.00605503586606
0.0366249941279
0.0518010052632
-0.00160596367318
0.0485113414112
0.0380132368159
0.000295457490798
0.0777469915138
0.0180331299342
-0.00896008573002
0.101658229086
-0.0146437196833
-0.000194473685063
0.10289347244
-0.00449739554507
-0.0115760411765
0.0817133422665
-0.0049105375832
0.0100172310346
0.0722328709207
0.0167490294059
-0.00216186460873
0.0655852344492
0.0112306637264
0.0100041375424
0.0876461284846
-0.0070964613807
0.00627036861403
0.0868171590123
0.00719270331324
-0.00718982660765
0.101184421941
-0.00248970837095
-0.0118746778519
0.116895813056
-0.00519270531743
-0.0248830720208
0.115495143349
-0.0148049857489
-0.0138701218823
0.0942683016186
-0.0130925753759
0.00564430947522
0.0918742138489
-0.0143006672068
0.00924648907576
0.10179764758
-0.00868945130059
-0.00628816056145
0.106085770866
-0.0267025956275
0.0074368604795
0.10403761049
-0.0106138963062
-0.00660367846579
