6 8 -1 -1 3 -1 4.670556203085403
11 8 1 -1 4 1 -999.7642174626512
8 7 1 1 5 0 -143.2339388182218
8 8 -1 -1 10 1 0.728631875820969
5 9 1 -1 1 -1 0.20338752156074064
11 4 -1 -1 8 -1 0.3083449955760178
10 11 -1 -1 10 -1 0.1422346537024803
1 3 1 1 2 -1 -0.2187081072692032
5 0 -1 1 8 1 8.715096256630245
5 1 -1 1 5 1 9.432296021446723
4 11 1 1 7 1 0.3567113727870295
2 6 -1 -1 11 0 62.49568200658942
1 10 -1 1 9 0 135.83141321282991
5 2 1 1 3 -1 -3.2436369536374468
1 1 -1 -1 0 1 73.88123455482543
3 7 1 1 8 -1 0.23472543891390357
10 2 -1 -1 1 -1 0.4022621464968514
10 11 1 -1 2 -1 -577.2624973129584
7 6 1 1 7 0 2.04403884266855
8 3 1 1 11 0 -17.364703329313837
2 3 1 1 9 1 0.11653953073228167
2 9 -1 -1 7 -1 8.891287884329437
4 10 -1 -1 2 0 4.970728259801207
9 8 -1 1 1 1 0.12527456699815148
7 10 1 1 1 -1 -102.89899371436789
1 7 1 1 4 -1 -0.00988415048353794
7 6 1 1 3 1 -33.81829974404069
7 10 1 -1 9 1 3.1364987215958813
11 1 -1 1 2 0 0.0
1 8 1 1 8 1 0.04445255995623888
5 8 1 1 5 0 -18.005390964840576
0 7 -1 1 5 -1 574.4538774298337
6 5 1 1 7 0 1.5712279678715704
3 8 -1 1 8 1 46.900519628790185
7 11 -1 -1 10 0 1.063091832584937
10 9 1 -1 8 1 34.33937199560875
5 8 -1 -1 9 -1 4.541612433902893
0 9 -1 1 10 0 480.85452498521505
4 8 -1 1 2 1 14.500220031843295
4 9 1 1 4 -1 -5.743272188610042
3 0 -1 1 3 0 1.4292085101761707
5 0 -1 1 9 0 8.984814650011133
5 7 1 -1 6 0 0.5850033922759217
1 10 1 -1 7 -1 0.019217531773368397
8 6 -1 -1 9 -1 1.0974964387802255
3 8 1 -1 0 1 0.020318445950968527
7 1 1 1 8 0 0.0
6 7 -1 1 4 1 1.7725020559137286
10 11 -1 -1 11 0 0.15431171354638573
9 0 -1 -1 6 0 0.7069181183077367
1 9 1 1 10 1 0.05046134257785347
1 2 -1 1 10 -1 74.28642980727257
8 3 -1 -1 8 1 1.3992873742561727
7 8 -1 -1 9 -1 1.128525517729261
3 2 1 1 10 -1 0.220087519502478
0 4 1 1 8 1 0.028186259157386335
9 4 -1 -1 1 -1 0.0
6 2 1 1 0 1 1.3656294924453817e-06
10 11 -1 1 9 -1 0.164170720989058
0 11 -1 1 11 1 387.20916090381024
8 6 -1 -1 3 0 0.0
0 4 -1 1 1 -1 308.36788814280516
0 7 -1 1 7 1 575.1146499921603
3 8 -1 -1 7 1 12.05042515367716
3 9 1 1 7 -1 0.15501698287339505
9 1 1 -1 8 -1 -166.78443051470725
10 6 -1 1 5 -1 0.07856508719526739
7 11 -1 -1 1 1 0.8740993168713113
5 0 -1 1 11 -1 9.78347476366685
4 5 -1 1 11 0 37.775270751049575
5 8 1 1 1 -1 -21.37951452586962
0 10 -1 -1 8 0 11.572185953617923
1 9 -1 -1 6 0 6.896860769087695
7 4 -1 1 2 1 2.524472471053594
1 1 -1 1 2 -1 0.0
0 2 -1 1 2 0 1.7124314322149856
9 11 -1 1 10 1 0.31697712912940185
8 0 1 1 5 1 -1.5682295224775298
2 8 1 1 9 0 0.11818287613849059
3 4 -1 -1 1 1 45.660581736755546
6 5 -1 1 2 1 3.342185226188162
8 2 -1 -1 10 1 1.5818040580454475
5 1 -1 1 7 -1 8.454960597208023
9 1 -1 -1 8 1 0.9990437390003537
5 2 1 -1 7 0 0.14652063442885763
5 4 -1 1 1 -1 6.468101322111456
1 10 1 1 7 1 0.03202598948967769
6 3 -1 1 0 0 0.0
6 0 1 -1 1 -1 0.057139015284569106
6 11 -1 -1 4 -1 1.348755058787845
3 7 1 1 7 1 0.27492234176331487
5 6 -1 -1 6 -1 9.576840132215608
9 4 -1 -1 2 0 0.0
10 7 -1 1 3 0 0.08680197876004402
10 7 -1 1 2 1 0.06608634641284648
5 5 -1 1 1 -1 7.965174767098329
4 1 1 -1 9 -1 0.0
6 11 -1 1 11 1 1.2439150238372942
7 9 -1 1 2 0 0.49172240408020984
5 6 -1 1 5 1 6.574373465724808
4 11 -1 -1 6 -1 4.278192683750961
6 7 -1 1 6 0 2.2187746305730727
9 5 -1 -1 9 0 0.7575252756426245
7 7 -1 -1 7 1 2.0016467549106594
6 4 1 -1 7 1 -11.793534464421572
6 1 -1 1 8 -1 5.766220517760291
5 6 -1 -1 5 -1 10.933434615500282
4 0 -1 -1 4 1 16.661004816348093
9 2 -1 1 0 0 0.32304747011011503
5 10 1 -1 4 -1 0.20991101965405334
8 1 -1 1 2 0 0.7808793425600004
0 10 1 -1 10 0 0.009195995309330731
1 8 -1 -1 5 0 36.875312825979
0 10 1 -1 11 1 0.01600197726230162
2 0 -1 -1 1 0 53.97720872218798
5 3 -1 1 3 0 13.184282963867634
7 3 -1 1 4 0 1.250640091974766
6 4 -1 1 6 0 3.1974727113319634
1 0 -1 1 3 1 112.07731680612062
11 11 1 1 7 0 -551.817414830806
8 1 1 1 10 1 -2.481563542393911
5 11 -1 -1 11 -1 4.240199561768373
4 8 -1 -1 9 -1 10.65411897708722
9 4 1 1 10 -1 -5.21779721316545
8 7 1 1 8 -1 -31.708631282282298
3 3 -1 1 1 0 41.77607785419035
9 6 -1 1 6 0 0.0
4 5 -1 -1 3 1 17.335666587105987
2 9 -1 1 4 1 51.025024218997565
1 6 -1 -1 1 0 119.54806150062501
3 11 -1 -1 9 -1 10.667475967998236
10 10 -1 1 9 -1 0.12776810554247078
6 4 1 1 8 -1 1.8606580724448696
5 10 1 -1 11 0 0.14020237664786125
4 3 1 1 6 1 0.5658123386112165
5 11 -1 1 5 -1 2.450522905971779
10 4 -1 -1 5 1 0.33418514704005764
4 6 1 -1 9 -1 -0.022720673450595898
8 11 1 1 2 -1 -175.36033310825593
3 7 -1 1 7 0 42.545516582885796
2 5 -1 -1 11 -1 96.78096223978902
5 9 1 1 9 1 1.2625551834952844
1 0 -1 -1 9 -1 173.91316525617364
3 2 -1 -1 6 0 67.86446700728408
3 2 -1 -1 7 1 47.79110379886699
10 4 -1 1 3 0 0.12516154200777324
7 1 -1 -1 0 0 1.9188449793839173
5 8 1 -1 1 -1 0.35322540677478576
8 4 -1 -1 6 -1 1.7084671381988854
7 10 1 -1 8 0 3.648791657325611
6 5 -1 -1 9 0 5.366085890027922
4 1 -1 -1 2 0 21.826183012326997
10 7 1 1 4 0 -312.7008792228863
2 11 1 -1 7 1 0.07040675479887959
2 11 1 -1 6 0 0.03422071075955181
3 8 -1 -1 5 -1 13.540483889556926
9 0 -1 1 1 0 0.35264117849202803
1 0 -1 1 8 0 162.61161541703942
5 4 1 -1 5 1 -0.014043459631194896
11 8 1 -1 5 -1 -991.8883080780668
9 7 1 -1 5 1 11.372121233059381
8 8 -1 -1 8 -1 0.5759145420029249
6 5 1 1 0 0 -33.72917410680156
6 9 -1 -1 1 0 3.043094049256823
0 11 -1 1 2 -1 0.0
7 5 -1 1 7 1 1.3818437428304466
11 8 1 1 6 1 -962.7709302489085
2 8 -1 1 6 0 60.62073734757818
7 1 1 -1 9 -1 -7.475413081330453
7 2 1 1 2 0 -6.577844501956737
10 0 -1 -1 10 0 0.0
0 2 1 1 4 1 0.034777827039419895
11 10 -1 1 11 -1 0.07648278518426721
7 1 1 -1 0 0 0.9401885729292607
2 5 1 1 0 1 -1.7379116790070719
5 9 -1 -1 0 1 4.80517467487572
8 0 -1 1 8 1 1.9729516771507571
1 11 1 -1 4 1 0.030806812752490944
5 4 -1 1 6 -1 14.986551705584695
7 6 -1 -1 10 0 3.0437905601105326
11 8 1 1 9 1 71.2821735175223
2 6 1 -1 7 -1 0.02214143755835415
2 0 -1 1 9 -1 64.72444664095556
1 0 -1 1 3 0 62.331187032033796
5 11 -1 -1 2 -1 2.2920451409842233
2 4 1 1 4 0 0.08266683759240182
0 8 1 1 3 0 -0.0020994943140527525
2 6 1 1 10 -1 0.11306984903184399
5 7 1 1 4 1 -8.233650446247758
0 6 -1 -1 7 -1 107.35141929564371
4 8 -1 1 7 0 14.274000866062085
2 11 1 -1 3 -1 0.03658772460699963
1 3 -1 1 7 -1 59.661971450896885
0 3 -1 1 1 0 76.49675306694047
4 8 1 1 10 0 0.5707017433763467
0 10 -1 -1 1 0 0.0031500549405457973
11 11 -1 -1 10 -1 0.1348931436948405
9 4 1 -1 11 -1 -255.17115562239866
1 4 1 1 11 1 0.06973559521023798
5 9 1 -1 5 0 0.4115142795577181
2 10 -1 -1 3 0 10.59666029290326
3 7 -1 1 2 -1 28.31704871572012
4 2 -1 1 0 -1 0.0
4 10 1 -1 0 0 -0.42340034454737
5 5 1 1 7 0 1.0752305393140595
10 0 1 -1 5 -1 -245.2320067548931
8 7 1 -1 5 0 6.7909237379035625
2 5 -1 -1 7 -1 71.56991735397432
9 0 1 -1 1 -1 6.398585110397009
4 2 -1 -1 11 1 28.34579671636823
1 0 -1 1 9 0 93.60850916685617
2 1 1 1 9 0 0.11674549002636017
6 2 -1 1 2 -1 2.631007754224202
9 9 1 1 5 -1 -248.2855362551074
1 6 -1 1 6 -1 167.30899212195487
9 6 -1 1 3 -1 0.16768336361770145
11 1 1 1 0 1 55.44284604885566
9 9 -1 -1 9 -1 0.28280736735459744
6 2 -1 -1 9 1 7.5221488683926685
2 2 1 1 3 -1 -0.03783263357343408
4 5 1 1 7 0 0.564383517378826
5 6 1 1 5 0 -16.24656045268983
11 4 1 -1 11 0 -992.7086847362955
6 8 1 1 9 1 2.6538715241953352
5 11 1 1 6 1 0.046283845457344014
0 2 -1 -1 1 0 309.3846831992311
11 3 -1 -1 2 1 0.13968443165376523
4 6 -1 -1 5 1 16.504471652096225
6 10 -1 1 10 0 0.9516633061906108
2 5 1 1 7 0 0.14381898016492276
0 10 -1 -1 6 1 52.19561800128451
2 7 -1 -1 2 0 47.014964834369295
10 2 -1 1 1 -1 0.11859753343097364
11 11 -1 1 11 1 0.07978308561666364
9 8 1 -1 5 0 -51.25332194767684
7 3 1 1 0 1 -15.465155886591983
9 9 1 -1 9 1 -13.587177429451515
2 8 -1 -1 1 1 20.900316123199
1 8 -1 1 3 1 218.26057662714507
5 3 1 1 0 1 -0.049828286331411564
11 2 1 1 7 1 -897.114710105252
11 6 -1 -1 11 1 0.39967858256304345
6 7 -1 1 3 -1 2.185741245783171
8 11 1 1 4 -1 -162.02958388929804
2 5 1 1 9 1 0.13605315083499217
5 9 1 1 1 -1 -21.051066379898266
6 0 -1 1 1 -1 6.277301966484232
4 3 -1 1 3 -1 14.174313030880148
8 11 1 -1 7 1 4.077082793003066
8 11 1 -1 6 0 -165.8315889105521
11 1 1 -1 10 0 -987.3038184121457
1 8 -1 -1 0 1 21.399676388487933
2 8 1 -1 11 1 -0.00043973560221614253
10 3 -1 -1 5 0 0.39990715772707214
9 8 -1 -1 6 1 0.3389389420027327
3 11 1 1 11 1 0.14616498195931404
6 3 1 1 2 -1 -9.159413628603644
2 0 -1 -1 7 0 82.0053786799404
11 0 -1 1 2 -1 0.0
1 5 -1 -1 9 -1 144.99149392701673
4 8 1 -1 10 1 -0.7201902168193675
0 6 -1 -1 11 -1 239.64393309257326
4 6 1 -1 7 1 0.1050752988008403
5 1 1 1 2 0 -2.732331924487906
5 7 -1 -1 9 0 7.54716728232116
5 5 1 -1 8 1 -2.830100671544459
11 5 1 -1 4 0 67.3055972373594
8 6 1 1 1 -1 -155.84220363270407
6 9 -1 1 9 1 1.1243762331477205
3 0 1 1 7 1 0.0
5 10 -1 1 11 0 0.0
1 2 1 1 10 0 0.07191076587813255
6 5 -1 1 4 -1 4.121417007155415
4 1 -1 -1 9 0 28.44073424304743
10 10 1 1 5 -1 -387.3399566392927
9 1 -1 -1 2 0 0.3961861649086174
4 8 1 -1 8 1 0.13223869016907902
8 8 1 1 8 0 -95.90471722665873
9 10 -1 -1 9 -1 0.2665931161846288
9 11 1 1 10 0 -15.08584142260182
2 6 1 -1 2 -1 0.0
0 10 -1 1 2 1 222.68005027442928
10 10 1 -1 6 1 -275.7148253962779
0 4 -1 -1 0 1 144.9609184482821
0 1 -1 1 7 -1 33.35494650542747
8 10 1 1 7 -1 -44.16285561263606
11 8 -1 -1 10 0 0.19962558034557285
2 6 1 1 9 1 0.13073964562736629
6 5 -1 -1 4 -1 3.772468769246294
8 4 -1 -1 8 -1 1.508944618402674
6 1 -1 1 2 -1 3.797828967490894
3 6 1 -1 11 -1 -0.054170180687854744
0 1 -1 -1 8 1 186.720442799491
11 6 -1 1 8 1 0.0
8 10 1 -1 4 1 -187.3785567800385
5 11 -1 1 9 1 4.025149557153499
3 7 1 -1 3 0 0.021525543274997644
0 0 -1 -1 7 0 313.51900767448257
5 10 -1 -1 4 -1 3.1468062125186247
3 4 -1 -1 5 1 36.80112913455269
0 0 -1 -1 6 1 267.809137192951
5 2 1 -1 6 1 -0.47010712410362154
8 8 1 -1 0 0 -22.62160968024613
6 10 -1 1 6 0 1.355755738586344
7 10 -1 -1 6 0 0.9141576786985874
2 10 1 1 7 1 0.07825060061062061
11 7 1 -1 2 -1 -650.6143377148975
4 2 1 -1 5 -1 0.06150405312375845
6 10 1 1 8 1 1.9480143716305407
10 9 -1 1 11 1 0.1653764043179785
10 6 -1 -1 10 1 0.5132799524855879
10 9 -1 1 10 0 0.09930505564384223
2 4 -1 -1 8 1 67.48018471059434
10 11 1 1 9 0 -659.8637615237382
1 2 -1 -1 1 0 245.11097641768666
9 4 -1 -1 4 -1 0.6619190276502265
7 0 1 1 5 -1 -0.01517336296411953
5 10 1 1 0 0 -19.921005714092672
6 7 1 1 7 -1 -15.952546414075638
11 10 1 -1 6 1 -499.07665458818224
6 2 1 -1 3 -1 0.27919969629350216
8 5 1 -1 8 -1 -50.92229003415388
5 5 1 1 1 0 -14.972654668696956
9 6 1 -1 6 -1 10.74590357810111
10 3 1 1 8 -1 -294.2747914771045
11 10 1 1 3 1 -516.2463636417823
11 3 1 -1 4 -1 -156.18587394430034
5 9 1 1 2 -1 -16.488683150718586
10 5 -1 -1 3 0 0.0
3 2 -1 -1 1 1 27.016655252069718
9 10 1 1 4 1 -371.145122467541
10 7 1 -1 10 1 -430.14384136653064
9 10 1 1 5 0 -385.41032179419096
9 2 1 -1 4 1 -83.7729843183136
7 5 1 1 9 -1 5.64681306522395
2 9 -1 1 7 1 80.77129447475792
11 3 1 1 7 1 -975.5783425152842
4 4 1 1 8 0 0.6674712525197355
6 4 -1 -1 2 0 0.0
1 6 -1 -1 5 1 109.13755961388236
9 4 1 1 1 1 -180.4153161514802
5 3 1 1 4 -1 -3.6007318045769967
3 10 -1 -1 10 0 11.007201194133195
7 7 1 1 10 -1 4.988012159483076
7 8 1 1 11 1 4.750529982272653
3 3 -1 -1 1 1 31.695567133413263
0 9 -1 -1 8 -1 93.53171527861358
2 1 -1 -1 5 1 94.98508366300855
8 6 1 -1 0 -1 2.099259443187637
5 7 -1 1 1 -1 9.560007277294657
9 6 1 -1 2 1 -180.22481618203457
6 7 1 -1 6 -1 1.033048030860705
7 0 1 -1 4 -1 1.2205671734406376
6 7 1 1 3 1 -42.354522620477624
0 11 -1 -1 8 0 47.798878113385754
4 3 1 1 9 -1 0.8238357591982112
5 9 -1 -1 4 -1 5.755391842866983
3 6 -1 -1 0 0 21.430169588024068
8 1 -1 -1 2 1 1.2981489112614606
9 2 -1 -1 0 1 0.7333541515493665
8 8 -1 -1 6 0 0.811086188046916
3 5 1 1 10 0 0.29160792716275513
7 1 1 -1 10 -1 -4.810431583593703
3 2 1 -1 5 1 0.043606879388560824
2 9 1 1 11 0 0.11733680922555809
8 5 1 -1 0 0 -16.947853143184208
10 10 1 -1 10 1 12.642414962414126
11 11 1 -1 5 1 -983.5082080297466
10 4 1 -1 7 1 -488.62069683795556
5 4 1 1 2 0 -8.940357992686513
8 1 1 1 9 -1 -29.282530329793584
4 1 1 1 6 -1 0.5851491414022378
5 7 1 1 1 -1 -23.592018967352914
2 7 1 -1 0 0 0.0
8 3 -1 1 8 0 2.003509866904596
3 1 1 1 0 0 -0.03952782167839991
7 1 -1 -1 10 1 2.6125667213026444
9 3 1 -1 3 1 -13.663820961123534
8 0 1 -1 1 1 2.3660545209430333
2 9 1 1 5 1 0.07421172808962133
3 10 1 1 9 0 0.21239033729734674
8 6 -1 1 1 1 0.3129107020482482
1 3 -1 -1 5 0 137.13481426262257
8 3 -1 1 6 -1 0.8132048450793926
1 9 -1 1 10 0 208.71169000319458
0 0 -1 1 11 0 489.1524602069137
0 9 1 1 9 1 0.024885920821708322
8 5 1 1 7 -1 -4.149622054053413
0 5 1 1 2 -1 -0.05495599341728415
0 8 -1 -1 7 -1 11.089348448220045
4 0 1 1 9 -1 0.0
10 1 1 -1 0 0 22.58332265216983
9 4 -1 -1 11 0 1.0180134078526581
5 9 -1 -1 9 0 2.848024128637362
8 1 -1 1 10 0 2.9103597481594203
0 4 1 1 5 1 0.03329824081986219
5 3 1 -1 4 1 0.04126309234666502
6 2 -1 1 8 0 6.487833073288538
10 0 1 -1 1 0 -8.055372994795345
4 3 -1 -1 2 0 22.582727678345087
9 5 1 -1 3 0 18.97449917985045
5 4 -1 1 2 1 10.099730117057936
11 4 -1 -1 4 -1 0.1320879850515158
8 8 1 1 0 -1 -156.37907391937154
2 5 1 -1 4 1 0.0
1 0 1 1 3 1 0.0059817445946514294
1 11 1 1 4 -1 0.015052461815642787
9 1 -1 -1 8 0 0.9492238845898345
1 9 -1 1 0 0 26.161665451406577
6 7 1 1 1 0 -50.42285370008287
0 0 1 1 3 1 0.01879565484433671
11 11 1 1 1 1 -965.7955199177158
7 1 -1 -1 8 -1 2.216696957546674
2 3 -1 -1 6 0 75.85851092240985
10 9 -1 1 3 -1 0.0
4 6 1 1 3 0 -10.31080856109342
6 3 1 1 7 0 2.025355721005007
6 2 1 -1 4 1 -0.8434779552130856
11 7 -1 1 3 1 0.0
10 10 -1 1 2 1 0.20780619994069766
8 6 -1 -1 6 0 1.045998844785498
2 11 -1 -1 9 0 21.38974536848983
5 8 1 1 9 0 1.2657588721052082
9 0 -1 -1 11 1 0.0
1 1 1 1 2 -1 0.0019470946920845458
9 2 -1 -1 2 -1 0.6749592101928759
2 11 1 1 8 1 0.055682585659207334
3 2 1 1 4 1 0.22902451705849505
8 11 -1 -1 3 1 0.6564800705679509
8 10 -1 1 2 1 0.2720131116119912
3 2 -1 -1 4 1 39.191470466509976
2 9 1 1 7 0 0.08108491233648238
8 3 -1 -1 11 -1 1.5279507793233367
5 8 1 1 10 -1 1.1944028196953242
1 2 -1 1 9 1 81.33220136941453
11 2 -1 -1 1 1 0.11380339533573644
6 0 -1 -1 11 0 4.427934755360766
11 8 1 -1 9 0 61.14080196475784
11 0 1 -1 5 0 -745.5639507625046
11 0 -1 -1 3 1 0.25756351680919537
0 10 1 1 9 -1 0.01473448982527392
2 1 1 1 0 1 0.0
4 3 1 -1 8 0 0.0020482967645024967
2 3 -1 1 0 1 62.071114008838364
11 7 -1 1 5 -1 0.05267567366749938
9 2 1 -1 10 -1 -86.50819501014405
6 5 -1 1 1 1 4.043101566789988
0 7 -1 -1 0 -1 69.99260713303744
5 1 -1 1 11 -1 12.462374248983199
9 0 -1 1 10 -1 2.0689056211540446
6 2 1 -1 8 -1 -5.249307203093738
4 8 -1 1 1 -1 30.042495298112904
11 6 1 1 0 0 -342.8506595805321
0 6 1 1 10 1 0.02627248711102329
11 5 1 -1 2 0 -871.6439261361272
0 7 -1 1 11 1 674.2474458304762
11 8 1 -1 11 -1 -1000.0
6 7 1 1 5 1 -5.4739834466127455
5 2 -1 -1 10 -1 12.169641282197963
9 4 -1 -1 7 0 0.6892532031695444
5 9 -1 -1 5 0 1.9921707549750731
11 6 1 -1 1 1 -779.177000309603
7 4 1 -1 2 -1 0.8896518463555781
10 11 1 1 10 -1 -133.9108719321385
0 1 1 1 2 0 0.01495637911856257
1 2 1 1 0 0 -0.0808684919977644
10 8 1 1 2 0 -374.44721382618116
6 10 1 -1 2 0 -44.05981128003112
1 11 1 1 7 1 0.02883161960932982
7 10 -1 1 0 1 0.3248850669806207
10 11 1 -1 1 1 -652.2979436370039
9 6 -1 -1 5 1 0.6750277732383585
1 9 -1 -1 8 1 8.592827545709758
1 3 -1 1 3 1 0.0
7 11 -1 -1 3 0 0.94973636061176
4 9 -1 -1 5 0 3.7549296400660572
3 10 1 1 11 -1 0.1999100834447973
4 9 1 -1 3 -1 0.13535830059262408
4 7 1 -1 10 -1 0.060893581368689075
6 1 -1 1 4 -1 4.339524092149056
9 3 1 1 5 0 7.434225168687601
10 6 1 -1 3 -1 -412.451846408603
9 3 1 1 4 1 4.923993270860557
7 5 1 1 1 0 -55.10306660941645
3 6 -1 -1 11 0 31.552536738574553
7 11 -1 1 4 -1 0.7098232492204471
5 4 1 -1 0 1 0.024378460439691357
8 7 1 1 2 0 -221.0386626341247
5 5 1 -1 1 1 0.16848173600253397
5 11 -1 -1 7 -1 1.9115596904750796
9 11 1 1 9 -1 -51.67739987339627
6 0 -1 -1 9 1 5.596299666414324
8 0 -1 1 9 0 2.1931858399421884
7 2 1 -1 5 0 -13.708005283656377
8 9 -1 1 4 0 0.21942148891608834
7 2 1 -1 4 1 -15.542603716229312
6 6 -1 1 10 1 5.7688867896514315
5 11 -1 1 8 1 3.411581164453902
6 8 -1 1 7 1 1.4891108046211972
9 11 1 -1 2 1 -280.4792764255815
3 6 -1 1 6 1 59.13114234096823
5 2 1 1 7 1 0.0
4 7 1 -1 2 0 0.03880931481513128
6 7 1 -1 5 0 0.7383697351336911
4 10 1 -1 9 -1 0.29118277709775425
10 5 -1 -1 11 -1 0.6075135584576763
9 1 1 1 0 -1 2.4992559569717994
10 0 -1 -1 1 -1 0.20204573130015022
8 9 1 1 11 -1 10.298053318189835
11 4 -1 -1 2 -1 0.19828439424581534
4 4 -1 1 1 1 11.666984774313345
6 3 1 1 8 -1 1.4712057391620685
2 9 1 -1 4 1 0.022387300137067214
2 1 -1 1 3 0 17.830913833317748
2 1 -1 1 2 1 25.139729696012328
3 7 -1 -1 5 1 21.827185845750673
0 4 -1 -1 9 0 48.84342789583404
5 11 1 -1 10 0 0.6930643425451687
8 0 1 1 3 1 1.166661117286778
0 10 1 1 5 -1 0.009823381517594144
9 11 -1 1 9 -1 0.24856491139237327
2 0 -1 1 6 -1 71.77037101410374
4 3 1 -1 4 0 0.048433607290627574
8 0 1 -1 4 0 -9.755812894239755
10 6 1 1 1 -1 -427.55678398713735
7 2 -1 -1 6 1 2.808362362602943
7 7 1 -1 0 0 0.9980376692919173
10 7 1 1 8 0 27.36919066203911
3 1 -1 1 3 0 19.96382361173088
8 5 -1 -1 6 1 1.389654673308331
7 9 -1 1 4 0 0.5388229017564173
9 6 -1 -1 4 1 0.0
0 6 1 1 6 1 0.025393260988854114
8 11 1 1 6 1 -164.1855441530711
5 1 -1 1 3 0 9.570331468079338
4 7 -1 -1 9 0 18.172284344048048
7 0 1 1 6 0 0.1386882392125268
9 2 1 -1 2 0 6.028890382543958
10 1 -1 -1 4 1 0.3565740135556697
5 0 1 -1 3 -1 0.13425828966970316
4 3 1 -1 0 -1 0.0
2 10 -1 1 0 -1 169.5514919145654
2 4 -1 1 10 0 99.08073344680076
11 9 1 1 11 1 50.42217512044405
6 4 1 -1 8 0 -10.093798431286295
11 8 1 1 10 1 57.80263212752687
11 8 1 1 11 0 -9.327765822439545
5 7 -1 -1 8 -1 8.582878936337796
1 10 1 -1 0 1 2.377569830062403e-10
1 10 -1 -1 6 0 21.229628774166233
3 3 1 -1 3 0 0.0
0 3 -1 -1 8 -1 167.15892611110812
7 7 1 1 2 0 -67.40351397287192
3 4 1 1 9 0 0.24372849782687156
8 2 1 1 2 0 1.524512853677601
3 10 1 -1 11 0 0.11645799133450802
7 9 1 -1 10 -1 3.0165386088054116
6 5 -1 1 10 0 5.58656237438243
1 5 -1 1 2 0 61.43607457507193
10 1 1 1 3 -1 -432.50171784587945
5 2 -1 1 7 -1 10.923351803375388
4 3 -1 -1 8 1 23.704734166396594
6 2 -1 1 0 1 0.0
5 10 1 1 7 0 0.3151148849281407
11 8 -1 1 4 1 0.0
1 1 1 1 10 0 0.05174302229650029
8 0 1 1 0 1 2.1988916822382323
8 5 1 1 1 -1 -81.76816935803001
3 4 1 1 7 1 0.33340132322182464
6 9 1 1 10 1 2.4368943852059024
0 6 -1 1 0 1 97.48702699301396
7 6 -1 -1 5 1 1.819479086494435
0 6 -1 1 1 0 33.105450903787656
1 4 1 1 7 1 0.06746136159766598
5 3 1 -1 2 1 0.11248409297539695
7 8 -1 -1 3 1 1.3346485561731047
9 9 -1 -1 3 1 0.0
8 4 1 -1 7 -1 -76.59506645812267
8 0 1 -1 11 0 -59.157682355187234
9 4 1 -1 8 0 -339.9284207975504
10 10 -1 1 10 -1 0.12547150660262982
3 5 1 1 3 1 -1.031845179756903
8 9 1 1 7 -1 -218.8113173550949
4 8 1 1 9 -1 0.5257502349391971
6 7 -1 -1 11 1 4.262453352318822
5 5 1 -1 7 -1 0.034491343944249235
1 8 1 -1 6 -1 0.013983475401794484
5 6 1 1 8 -1 1.1671742474621962
5 4 -1 1 5 1 19.337512344283617
4 3 -1 1 6 0 36.49580603450351
8 10 -1 -1 10 0 0.5045053089739564
7 1 -1 1 2 0 4.015696436352416
6 6 -1 1 0 0 0.0
10 3 -1 1 0 0 0.07823590269749015
9 0 1 1 2 1 4.22877801488628
8 2 -1 1 2 -1 0.9071652848943845
1 11 1 -1 6 -1 0.021702447976409724
7 2 -1 1 1 1 1.6892541387367044
10 8 1 1 11 0 -67.39940784343183
6 3 -1 1 8 -1 5.3353181508309335
4 5 1 1 11 0 0.5576425890355645
3 6 1 1 0 1 -5.598822516803979
5 11 1 1 10 1 0.8755600255209722
5 0 1 1 10 1 0.0
8 9 1 -1 6 -1 -1.3914452136356061
10 6 -1 1 1 1 0.08931056430026203
6 9 -1 -1 3 1 2.104503917399897
5 10 -1 1 3 1 1.949876576306964
7 8 1 1 7 0 -85.68603638843788
1 10 1 -1 1 1 0.02173215971094882
8 4 1 1 6 -1 0.8732492118145609
0 7 1 1 4 -1 0.004408696699181357
0 11 -1 1 0 1 0.0
6 1 1 -1 3 1 0.16130701975945638
11 7 1 1 5 1 -503.9698596833364
11 7 1 1 4 0 -393.5704708042295
7 2 1 1 11 1 -0.3515228418380208
7 4 -1 -1 7 0 3.730771998715303
10 11 1 -1 4 0 -505.33014124603767
1 1 -1 -1 5 1 126.68251060793544
9 3 -1 1 3 0 0.2703646862793767
9 4 -1 1 5 -1 0.4070116405457523
2 11 1 -1 5 -1 0.03003693248960703
2 3 -1 -1 1 0 42.72934906271169
7 8 1 -1 11 0 -39.171267649819356
8 11 1 -1 10 0 9.32475717210472
11 1 1 -1 6 0 -611.2489554617994
7 9 1 -1 11 1 -24.47915676592026
7 5 -1 -1 8 1 2.9021844868811972
6 11 1 1 5 1 -12.60176210720821
8 6 -1 -1 11 0 1.3960462954612611
5 2 1 1 3 0 -3.2062140182173846
1 0 -1 -1 11 1 279.322887296059
1 5 -1 -1 7 -1 131.53910782970416
8 3 1 -1 1 1 2.4246011643301864
5 5 1 -1 9 1 -2.216681518911402
4 6 1 -1 11 1 -0.6532475846182185
8 9 -1 1 1 1 0.0
9 8 1 -1 0 0 -379.43754129530095
5 2 1 -1 11 1 -0.054096882482344504
2 10 -1 1 1 1 25.06784592218596
5 2 1 -1 10 0 -0.07449325530656402
5 5 -1 -1 3 -1 8.61888875377392
0 11 1 -1 3 0 0.001638671811035084
4 5 -1 -1 5 0 14.69945269822368
4 5 1 -1 7 0 -0.06258159587758028
8 7 1 -1 11 1 -136.5579129215124
7 10 -1 1 6 1 0.6237879587980475
8 2 1 1 5 1 0.0
6 10 1 -1 8 0 1.217067721201503
8 8 1 1 4 0 -136.88645305927523
3 5 -1 -1 10 1 34.40518177089559
7 2 -1 -1 10 -1 2.326410696681569
2 6 1 1 5 1 0.11669049547407116
1 5 -1 1 9 1 206.8928617733307
0 5 -1 1 5 0 0.31404213888849075
1 6 -1 -1 8 1 98.58723872805324
7 11 -1 1 2 -1 0.6380565238654763
4 10 1 1 4 0 -1.52619943334544
5 10 -1 -1 8 -1 2.244548931939033
3 3 1 1 6 -1 0.24030519193455965
10 10 1 1 9 -1 -452.70684857811494
3 7 1 -1 11 -1 -0.009293318047877832
9 5 1 -1 0 1 8.03618372918243
3 7 1 1 9 -1 0.25127359299514107
10 9 -1 1 6 0 0.08779001497320102
2 10 -1 1 11 -1 79.94495634779936
4 2 1 1 7 -1 0.960830233687783
0 8 -1 1 0 1 0.0
11 6 -1 -1 8 0 0.2687151688421218
9 6 1 -1 7 -1 9.899314370515043
9 5 -1 1 2 -1 0.1597134925023348
8 1 1 1 2 -1 1.6769119646144248
3 9 1 1 5 0 -0.09342136058666439
7 11 -1 1 5 1 0.5421901873406869
8 2 1 1 9 -1 -24.83976548077098
7 7 -1 1 8 1 0.0
10 0 -1 1 0 -1 0.17067865147141378
4 1 -1 -1 1 -1 20.25485530932555
0 1 -1 -1 10 0 450.21883879164443
3 4 -1 -1 3 -1 50.339151043887924
1 2 -1 -1 8 0 144.4622375688822
11 4 -1 1 3 1 0.030685852478240173
10 10 1 -1 0 0 -628.5852611923095
11 2 -1 -1 6 0 0.36034188926055694
11 5 -1 1 3 0 0.057740611819725
7 6 1 -1 11 0 -27.638272044245696
6 1 -1 -1 5 -1 5.088072785199717
2 0 -1 -1 0 1 76.9732861403262
2 3 1 1 9 0 0.10949508880109904
2 5 -1 -1 8 0 61.787267229261104
2 10 1 -1 9 -1 0.054175406629690795
11 9 -1 1 5 1 0.1103960269649455
5 0 -1 1 8 0 8.115176380875875
1 8 -1 -1 1 0 3.5893970822851538
5 1 -1 1 5 0 8.640087375860086
5 11 -1 1 11 -1 3.021295853345002
4 11 1 1 7 0 0.23188916536971746
2 6 -1 -1 11 1 97.4025568018383
9 1 -1 -1 5 -1 0.5702768724273853
7 9 -1 1 3 -1 0.48811476347318133
10 11 1 1 11 1 39.264811735711774
1 10 -1 1 8 0 170.2227353033684
3 6 1 1 6 -1 0.19328530240235897
7 4 -1 1 0 1 1.5556940421343095
6 9 1 -1 5 -1 -0.13124257540496753
5 10 1 1 6 -1 -5.321136513333131
2 9 1 1 1 0 -0.5896845228748029
3 1 -1 -1 2 -1 34.56561873691394
11 1 -1 1 2 1 0.0
5 3 -1 1 2 1 8.9299580047127
9 5 -1 -1 11 -1 0.8748937945718726
3 8 -1 1 8 0 48.436340760313975
1 4 -1 -1 3 1 129.80059563581628
5 1 -1 -1 2 -1 0.0
11 11 1 -1 9 1 21.000481568910818
7 0 -1 1 6 1 2.0093634575140524
10 9 1 -1 8 0 24.17725443524749
8 1 1 1 5 -1 1.0383712108187717
10 5 1 1 8 1 -556.3565849007281
1 9 1 1 6 1 0.03722383544833622
3 0 -1 1 3 1 28.146635874254613
3 5 -1 -1 4 -1 36.23188550529782
5 7 1 -1 6 1 0.4015147347023001
9 0 -1 1 9 -1 0.0
9 2 1 -1 3 0 -4.348073933252444
6 3 1 1 0 1 -10.005269976483003
5 6 1 -1 0 -1 0.0
1 4 -1 1 5 1 227.8220046352816
9 0 -1 -1 6 1 0.7834719169503426
1 9 1 1 10 0 0.04583349468053077
0 0 -1 1 10 1 495.8123551841164
0 4 1 1 8 0 0.026120458699251704
0 10 -1 -1 3 1 9.987944305547316
6 4 1 1 5 1 -2.426618162511363
9 7 -1 -1 8 -1 0.5491818361265387
10 4 1 1 10 1 -216.83553827194942
5 8 1 1 7 -1 0.6248534103473145
9 10 1 -1 3 -1 -188.62269125662766
4 2 -1 1 5 -1 19.293111858306084
4 11 1 -1 1 0 -4.895820016116852
5 4 -1 1 2 0 6.872768073488934
7 4 -1 1 2 0 1.340163536347837
0 2 -1 -1 0 1 378.97753903868335
1 11 -1 1 8 0 64.86073251010149
0 2 -1 1 2 1 1.6884643496907898
0 3 1 1 0 -1 -0.06882391856308218
2 8 1 1 9 1 0.1284361417047502
2 6 -1 1 0 -1 0.0
3 4 -1 -1 1 0 26.127283242704134
3 9 -1 -1 8 1 9.823574204651235
8 2 -1 -1 10 0 1.5295127333689118
10 10 1 1 3 -1 -639.2321951783223
9 11 1 -1 11 -1 16.165155788657113
3 3 1 1 8 1 0.25112977958147076
5 3 1 1 1 1 -4.941993631789098
1 10 1 1 7 0 0.030802887814460528
10 0 1 1 11 0 -418.04417802138056
10 3 -1 -1 1 -1 0.0
0 8 -1 -1 6 1 11.737303863274573
1 11 -1 -1 8 1 46.560764257913725
10 7 -1 1 3 1 0.08378824979684286
1 6 1 1 1 1 -0.5614590827159738
10 7 -1 1 2 0 0.07665360145241534
7 9 -1 1 2 1 0.8291061989277615
10 0 1 1 11 -1 -579.7370441568628
8 3 -1 -1 7 -1 1.1083718828362434
2 5 -1 -1 3 1 64.30906601815798
1 3 -1 -1 3 0 108.35315046190374
3 1 -1 1 9 -1 23.636997888778062
4 4 -1 1 11 -1 31.72294541412925
6 6 -1 -1 9 -1 4.583749537446052
9 5 -1 -1 9 1 0.8962789792049852
1 10 -1 1 2 1 240.1238684161325
4 10 1 1 6 -1 -0.45542137698020857
5 7 1 1 0 1 -26.722134818453753
10 9 -1 -1 11 -1 0.20752110671569227
6 10 1 1 2 1 -17.715479662194475
4 0 -1 -1 4 0 19.390757667044042
3 0 -1 -1 1 1 24.952207636883575
11 11 1 -1 4 -1 -899.2398653315956
0 10 1 -1 10 1 0.010140944064872502
0 10 1 -1 11 0 0.009120033776966052
5 11 -1 1 2 -1 3.9865218279939825
2 0 -1 -1 1 1 56.54478087291065
9 0 -1 1 5 -1 0.5462632762374755
7 3 -1 1 4 1 2.213228412404307
6 8 1 -1 4 -1 0.4697460913424887
6 4 -1 1 6 1 4.687026163147613
11 11 1 1 7 1 -945.6959760164088
6 6 1 -1 8 0 -10.855681012045448
3 8 -1 -1 6 0 10.998550069270829
9 11 1 1 4 -1 -323.1197339109932
11 6 1 -1 0 1 -340.16275038146114
4 7 1 1 4 0 -6.378455976510705
4 4 -1 -1 2 0 10.104086151821239
4 7 1 1 5 1 0.38996706307624734
4 5 -1 -1 3 0 19.11201967986245
5 4 1 1 7 1 1.268548503187344
2 9 -1 1 4 0 65.52620446196701
3 3 -1 -1 5 1 36.396172551808974
10 3 1 -1 1 -1 22.182983811743856
4 1 -1 1 10 -1 18.31231501080886
2 5 -1 -1 3 0 78.43351522416916
2 1 -1 -1 4 -1 73.96663543121291
5 10 1 -1 11 1 0.2494263151912487
7 7 -1 1 6 -1 0.6141012663801457
3 2 -1 1 9 -1 25.586419460096337
6 5 1 1 1 1 -31.306789235535994
8 6 1 -1 6 -1 5.634183570564831
0 5 -1 -1 6 -1 302.1675808973235
3 2 -1 -1 6 1 46.46285559880281
4 5 1 1 8 -1 0.565830135565415
3 2 -1 -1 7 0 48.56912285361549
1 6 -1 -1 9 -1 110.93886172383458
10 7 1 -1 11 -1 -381.71737091846177
11 8 1 -1 9 -1 70.48757057555255
8 3 1 1 9 -1 0.0
7 11 -1 1 8 -1 0.5921263914311161
4 1 -1 -1 2 1 25.395594129357658
4 6 1 1 3 -1 -9.644457157748583
10 7 1 1 4 1 -385.51373668078395
8 9 1 -1 5 0 -41.60087537853428
8 9 1 -1 4 1 -30.512905346090644
7 11 -1 -1 3 1 0.9911887286146694
8 2 1 -1 0 -1 2.8741655908018924
10 1 -1 -1 7 1 0.6298945546481638
10 6 -1 -1 11 0 0.5926772828403662
8 5 -1 -1 2 -1 0.0
6 10 -1 -1 2 0 1.9041632925382885
1 1 -1 -1 11 -1 187.11261806160823
7 5 1 -1 0 1 0.0
9 7 1 -1 5 0 8.33439159345489
0 8 -1 1 7 0 504.5716245748001
2 4 -1 1 9 0 73.4542653459628
3 11 1 -1 10 0 0.1429280682674291
5 0 1 1 8 1 0.0
2 8 -1 1 6 1 96.54308596763364
3 9 1 -1 6 -1 0.06544824791909735
0 2 1 1 4 0 0.03435052156026661
0 0 -1 -1 10 -1 446.57259098424123
1 11 -1 1 8 -1 43.622280430337774
7 6 -1 1 5 -1 0.5285648539728366
7 4 -1 1 8 0 2.6688785140589304
1 9 1 1 3 0 -0.01756135155431326
4 2 1 1 11 0 0.757659769473438
7 6 -1 -1 10 1 2.78270206409104
8 7 1 -1 5 -1 7.404446619122594
2 9 -1 1 5 0 30.278527434040818
0 1 1 1 4 0 0.02264165109470773
0 8 1 1 3 1 0.010694446196342156
7 2 1 1 2 -1 -5.725784972733215
4 3 1 -1 9 -1 -0.0985605313759101
10 10 1 1 4 1 -310.4303289614915
11 5 1 1 6 1 35.902022647851375
2 7 1 1 5 -1 0.07024239948889804
0 10 -1 -1 1 1 12.766609770102903
4 9 1 -1 5 -1 0.21986542524847486
1 4 1 1 10 1 0.06237630175312488
7 5 1 -1 0 -1 0.0
1 4 1 1 11 0 0.05615673751547422
4 4 -1 -1 7 -1 20.675345894407197
7 8 -1 1 9 1 0.0
9 11 -1 1 5 -1 0.3005644664837084
5 5 1 -1 4 -1 0.16625585638485468
2 10 -1 -1 3 1 10.269788574279922
6 9 1 -1 4 1 1.1066331707268053
5 0 1 -1 1 0 0.22372329822549658
10 11 -1 1 9 0 0.1278888988579978
6 6 -1 -1 3 -1 5.791844052822023
5 5 1 1 7 1 1.2667296621271542
9 0 1 -1 0 -1 8.748849506447149
10 1 1 1 2 -1 9.13341306954172
10 0 1 1 0 0 18.36955738807944
9 4 1 1 0 -1 -132.94686755140953
1 0 -1 1 9 1 297.2256495639505
10 2 -1 -1 1 0 0.2833856455355538
4 10 -1 1 7 -1 4.952131487736994
8 11 -1 1 7 0 0.3543720198446568
5 9 -1 1 5 -1 3.066289334873006
8 11 -1 1 6 1 0.3917221485219056
11 3 1 -1 8 0 -979.2002067023669
11 3 1 -1 9 1 -945.8208731667042
11 1 1 1 0 0 50.24653025385249
8 0 -1 1 4 1 1.694240859892042
11 6 1 1 11 1 -986.8421052631579
9 8 1 1 6 0 -259.8768330991485
4 11 -1 -1 3 1 3.9312196733723725
11 4 1 -1 11 1 -997.8229317851959
5 11 1 1 6 0 -0.6768070162397823
11 3 -1 -1 2 0 0.11261425253775496
9 8 1 1 10 -1 18.466965951507124
6 10 -1 1 10 1 2.1332974408374383
10 6 -1 -1 7 0 0.4590575603273891
7 7 1 -1 3 -1 0.16805785420382713
7 3 1 1 1 -1 -48.067362391734626
2 7 -1 -1 2 1 54.9832843400184
6 4 1 1 3 -1 -23.789085360843714
7 4 -1 1 9 0 3.3772745029388336
11 11 -1 1 11 0 0.08636848056441906
3 5 -1 -1 3 0 43.60356222714287
9 8 1 -1 5 1 -10.084934378447866
9 11 -1 1 10 0 0.2646853480512556
7 3 1 1 0 0 -9.996776480837713
9 9 1 -1 9 0 15.633431481978295
9 4 -1 1 1 -1 0.1863061415595991
3 8 1 1 1 -1 -3.1184891554775014
11 2 1 1 7 0 -721.7457024708349
4 8 1 1 5 -1 -3.9044402403005463
11 0 -1 -1 2 0 0.1762485885407054
9 1 1 1 2 1 2.5802136540584986
7 4 1 -1 4 0 1.2723230845375242
6 8 1 -1 6 0 0.7620048000240741
2 5 1 1 9 0 0.1687934755552815
4 8 1 -1 6 1 0.19789152321571102
9 0 -1 -1 2 0 0.39727640744571935
3 1 -1 -1 9 0 48.38679134337151
4 4 -1 -1 11 0 19.172483211841204
11 1 -1 -1 2 1 0.18230237490652276
6 3 1 -1 6 0 -6.124126141393052
11 1 1 -1 10 1 -1000.0
4 5 -1 -1 11 1 15.987154482791496
8 3 1 1 3 -1 -0.8588536207584108
2 8 1 -1 11 0 -0.0011806619403450724
9 5 1 1 3 -1 -124.1975096912613
10 3 -1 -1 6 0 0.31869958564359263
2 5 -1 1 6 -1 83.48034991874789
0 1 1 1 8 0 0.023984553359490395
2 3 1 1 6 -1 0.11533506771787114
11 11 1 1 2 0 -809.0631194302068
4 8 1 -1 3 -1 0.05191168758697352
9 5 1 -1 8 1 -309.0429017221384
6 9 -1 -1 9 1 1.4542427572684022
4 6 1 -1 6 1 0.06070654160484272
11 3 1 -1 6 -1 -973.7546896629275
4 6 1 -1 7 0 0.09179196411020439
9 10 1 1 6 1 -26.595751170068084
5 7 -1 -1 9 1 10.087191093329926
11 5 1 -1 4 1 59.19912876910354
8 3 1 -1 4 -1 2.511931123214729
11 0 1 1 0 1 -92.39604252997995
0 7 1 1 8 -1 0.02834589507944508
8 7 1 -1 8 1 -12.607978370967558
6 1 -1 -1 2 0 3.654741692449315
7 6 1 -1 0 -1 0.0
5 4 1 1 10 1 1.4624184366258988
1 2 1 1 10 1 0.06703825165761966
2 3 -1 1 8 1 49.26413873672566
6 9 1 -1 8 1 1.3126474979488831
8 11 1 1 2 1 -131.01210055733617
5 2 -1 -1 8 0 9.282153878827529
2 6 1 -1 3 -1 0.0
0 8 -1 1 6 0 552.808252885378
5 3 1 1 8 -1 1.2972916619738266
0 4 -1 -1 0 0 49.36593901120793
2 3 1 1 11 -1 0.1508225301677786
5 6 1 -1 2 1 0.2447351265947647
7 2 -1 -1 7 -1 2.5630024548442
2 2 1 1 7 -1 0.16268690761021673
11 8 -1 -1 10 1 0.23337048077684774
0 8 -1 1 7 1 503.7586444757317
4 10 -1 1 11 -1 6.765950699605763
0 7 1 1 3 1 0.003937429068146486
5 4 1 -1 10 0 -0.684087286604538
0 11 -1 1 6 0 188.16047863995777
5 10 -1 -1 5 -1 2.7993250992180125
0 2 1 1 5 -1 0.03798844590487495
4 9 -1 1 3 0 8.50174418608987
0 6 1 1 8 -1 0.028937387664150636
0 0 -1 -1 6 0 83.72250281065939
3 3 1 1 1 0 -1.7902756277609584
8 5 -1 -1 8 -1 1.5779689100884988
6 10 -1 1 6 1 1.051072222435393
1 3 -1 1 11 1 93.174312523266
7 10 -1 -1 6 1 0.8692716985525548
6 11 1 1 0 -1 -35.64628088183997
3 7 -1 -1 3 1 27.973785227239922
6 10 1 1 8 0 1.2498398800024373
8 1 -1 1 10 1 2.9937760257575254
8 11 -1 1 1 0 0.40838627818264367
8 8 -1 1 1 -1 0.0
10 7 1 -1 6 1 32.738987052391
2 4 -1 -1 8 0 69.10043557114327
5 11 1 -1 7 -1 0.6998523219036216
9 4 -1 -1 5 -1 0.6511462570097719
10 1 -1 1 2 1 0.24611563855629612
8 4 1 1 8 0 6.305562929030268
9 2 1 1 0 0 -41.844037437520356
6 0 -1 -1 8 -1 4.671413109165655
3 10 1 -1 10 -1 0.12414712773133721
10 3 1 1 9 -1 -200.6807532234786
1 2 -1 1 11 -1 68.379902955881
2 10 -1 -1 10 0 25.350527393691255
1 10 -1 -1 10 -1 49.87413190254081
3 4 1 1 2 0 -3.642545043439384
8 5 -1 1 0 1 0.37312508527423766
3 2 -1 -1 1 0 34.690894321042215
3 4 -1 1 0 -1 0.0
10 7 1 -1 10 0 -559.5285914278206
4 8 -1 1 8 0 12.756971503155919
9 2 1 -1 4 0 -77.29769247694256
3 10 -1 1 5 -1 17.240886793762673
3 9 -1 1 0 0 10.507345456168071
1 6 -1 -1 5 0 112.57204264622794
0 11 1 -1 8 -1 0.013812223080642371
7 3 1 -1 0 0 0.0
6 4 -1 -1 6 -1 5.004509785045433
7 1 1 1 5 -1 0.616997258019489
3 10 -1 -1 10 1 10.801228302747552
1 4 -1 -1 11 1 127.65730724292531
2 0 -1 -1 11 0 89.5719710446467
7 8 1 1 11 0 4.438667335869387
1 10 1 -1 10 1 0.02356949094763309
2 1 -1 -1 5 0 70.49759719640967
9 1 1 -1 2 -1 3.6748790269631977
9 6 1 -1 2 0 -184.71285830006687
4 7 1 -1 5 0 0.23985059401967818
0 4 -1 -1 1 0 187.17863866776634
6 7 1 1 3 0 -22.987653912020335
0 11 -1 -1 8 1 52.22325051249096
11 7 -1 -1 9 0 0.20836844762876647
9 3 1 1 10 -1 -70.2874910889741
6 0 -1 1 8 1 6.168954229127504
3 6 -1 -1 0 1 26.818838213550123
11 6 -1 -1 5 1 0.14018070577280517
5 11 -1 -1 10 1 3.866413168251995
0 2 1 1 2 0 0.012159500233491407
6 3 1 1 1 0 -15.41403738471589
9 10 -1 1 4 -1 0.20531696968593652
6 0 -1 1 11 1 5.273498016536281
9 5 -1 -1 6 -1 0.6130853275272152
1 5 -1 -1 3 -1 134.7962064490296
9 5 -1 1 3 1 0.2571786081692873
1 9 1 -1 8 -1 0.020251394976358177
11 11 1 -1 5 0 -1000.0
10 4 1 -1 7 0 -549.5067004965576
5 11 1 -1 4 0 -0.7606394698699179
5 4 1 1 2 1 -13.898896829090482
3 5 -1 -1 11 -1 32.39695154996674
5 8 1 -1 11 -1 -1.2916324755901643
7 3 1 1 9 0 0.0
7 1 -1 -1 10 0 2.320200572393793
9 3 1 -1 3 0 7.049123386397175
8 0 1 -1 1 0 2.770476240119103
2 9 1 1 5 0 0.051522097820964174
6 9 -1 -1 2 -1 2.973057064864339
8 6 -1 1 1 0 0.2589717604906221
10 5 -1 1 6 1 0.0
1 3 -1 -1 5 1 121.04219790950044
7 4 -1 1 8 1 3.2178174196350344
1 9 -1 1 10 1 296.6753231187876
2 1 1 1 8 1 0.10431980371459176
0 9 1 1 9 0 0.02064914413514997
10 11 1 1 7 1 -151.2626240220447
1 5 1 1 1 1 -0.09773053870533262
10 8 1 -1 4 0 -199.65707146097185
10 7 -1 1 5 -1 0.06374002272731268
3 6 -1 1 11 -1 69.23654566534717
5 9 -1 -1 9 1 2.652559629630664
4 5 1 -1 0 0 0.0
2 8 1 1 6 -1 0.06334648971335559
8 0 1 1 11 0 -71.69406060027414
4 2 1 1 8 0 0.45324468747112756
8 1 1 1 11 1 -43.807599683746496
6 2 -1 1 8 1 6.603897995720202
0 7 -1 -1 2 -1 21.651541156324363
9 4 1 -1 3 0 8.087773115330709
4 7 1 1 6 -1 -0.8670969788625791
4 8 1 1 2 1 -5.088782217521393
1 0 1 1 3 0 0.03800862335204839
10 5 1 1 9 1 -645.430545849833
11 10 1 1 11 1 74.53151250315325
5 9 -1 -1 7 0 2.500151379884449
10 2 -1 -1 7 -1 0.46097567062796013
11 8 -1 -1 11 1 0.25791185265026634
7 11 1 -1 3 0 -54.65890202058604
2 3 -1 -1 6 1 78.23283439054396
4 10 1 -1 4 -1 0.18592958855875327
0 0 1 1 2 -1 0.01710036576697335
4 3 -1 1 8 1 28.948082133056527
8 10 -1 1 1 1 0.23027083534702672
5 9 1 1 6 0 -15.282236234910274
6 4 1 -1 5 0 0.008862035649030486
9 0 -1 -1 11 0 1.4705047536056208
1 8 -1 -1 7 1 13.13402690171749
9 10 -1 1 5 0 0.15753152341832258
1 8 -1 1 8 0 201.95881358893624
0 4 1 1 4 -1 0.012019829332197918
1 9 1 1 11 -1 0.04965153964098828
7 9 1 -1 1 1 -53.49686499968851
1 5 -1 1 4 -1 84.3071191673453
0 10 1 -1 6 -1 0.004059830765202503
2 4 -1 1 9 -1 107.29773071442727
8 11 -1 -1 3 0 0.6626710207956068
3 10 1 -1 0 -1 -0.8331338028953189
7 0 -1 -1 0 -1 1.9112408738832916
8 1 1 -1 8 -1 -43.985668277697414
11 0 1 1 6 -1 -653.8390033400481
1 10 -1 -1 0 -1 0.03692503300188373
2 5 -1 1 4 -1 68.57912677168275
6 0 -1 -1 11 1 4.937577135027734
10 9 1 1 2 0 -575.8895128026936
11 0 1 -1 5 1 -420.37259719446456
7 9 -1 -1 1 -1 1.9385633607268684
2 10 -1 1 7 1 32.85446663571897
2 4 1 -1 5 1 0.0
6 2 -1 -1 0 0 3.6011611118719857
7 3 1 -1 1 -1 0.7642194301851708
2 3 -1 1 0 0 0.0
11 6 1 -1 11 -1 -1000.0
5 8 -1 1 0 -1 8.7618588578318
6 11 -1 1 6 1 1.3892447113920152
6 5 -1 -1 6 0 5.0682315546249885
3 9 -1 -1 6 0 5.9061607350663055
3 8 -1 1 4 -1 31.174198078634124
3 7 1 -1 0 0 0.0
0 6 1 1 10 0 0.02526736823010039
10 10 -1 1 4 -1 0.1578567838798061
11 5 1 -1 2 1 -417.8720186957557
8 1 1 1 8 0 -57.989942127394045
10 0 1 1 7 0 -295.6145555829059
6 7 1 1 5 0 -48.071683652112085
10 7 1 -1 3 0 -190.47382436041235
7 7 1 -1 11 -1 -40.41561988990938
6 2 -1 -1 3 -1 5.167733393195907
5 9 -1 -1 5 1 2.7377058585253553
3 11 1 1 3 0 -0.01394147915182308
0 9 -1 1 5 -1 258.14804132005247
5 6 -1 1 4 0 10.224197320866356
0 1 1 1 2 1 0.02206643552787229
1 2 1 1 0 1 -0.10339968431856032
6 10 1 -1 2 1 -36.89332885279197
4 7 -1 1 2 1 14.209783446100145
7 10 -1 1 0 0 0.0
5 1 1 1 3 1 -0.11287170382826583
7 4 1 -1 1 0 0.0
1 9 -1 -1 8 0 10.39618981623434
8 0 -1 1 0 -1 1.304094002224272
1 3 -1 1 3 0 120.06020948531226
10 3 1 -1 9 0 -588.8616822997467
1 6 1 1 10 -1 0.05756239012931438
9 10 1 1 2 0 -227.26222453694285
3 7 1 1 5 0 0.13139711890866754
6 6 1 1 2 -1 -46.811032161445944
5 2 -1 1 2 0 5.983374495528921
9 2 -1 -1 4 0 0.5273835289058447
9 3 1 1 4 0 3.4742744774937404
3 1 1 -1 6 0 0.0
11 3 1 1 6 -1 -997.8229317851959
9 1 -1 -1 10 1 1.2172095015330628
10 4 -1 -1 8 1 0.461403895233563
4 6 -1 1 1 1 14.40762721998491
5 7 -1 -1 10 -1 8.364016942544048
6 9 -1 1 1 -1 0.8230709544114743
5 4 1 -1 0 0 0.005096057711518359
4 9 -1 1 4 1 8.727405172202795
8 7 1 1 2 1 -79.91450875926856
2 5 -1 -1 6 -1 76.84491893996946
9 11 1 1 8 -1 -99.83100621439347
9 6 1 1 4 0 -152.21495929714735
3 4 1 1 11 0 0.29643562115777167
7 2 1 -1 5 1 -10.941359024008234
6 1 1 1 1 1 -4.4533943981405635
7 2 1 -1 4 0 -15.956513251313073
4 7 1 1 9 1 0.6443994527308722
8 2 -1 -1 0 0 1.1534991236282892
3 4 -1 1 1 0 0.0
6 8 -1 1 7 0 1.911336673180921
3 6 -1 1 6 0 89.70096566232354
6 5 1 -1 11 0 -6.851402808681035
6 1 -1 -1 3 -1 5.6051757834881215
9 3 1 -1 10 0 -136.02292149922744
6 7 1 -1 5 1 1.372048831754034
2 1 -1 -1 8 -1 80.33426155939593
1 3 -1 1 4 -1 9.253900508292233
5 10 1 -1 6 0 0.33370443579246084
7 5 1 -1 6 0 0.0627774987761716
4 4 -1 1 1 0 17.51368863487116
1 4 1 1 10 0 0.07150285634911045
6 2 -1 -1 0 -1 3.9729063271651777
2 1 -1 1 3 1 0.0
2 1 -1 1 2 0 23.704281982518122
0 4 -1 -1 9 1 49.42934690041637
10 5 1 1 10 0 -509.2125837983118
3 9 -1 1 6 0 24.11917376305934
6 7 1 1 4 0 -28.480712976365957
0 1 1 1 9 -1 0.02540260981169393
10 2 1 -1 6 -1 -608.9982107511817
8 0 1 -1 4 1 -16.65755119083742
7 9 -1 -1 11 -1 0.8208467880393745
5 9 -1 1 6 0 2.745400758461696
5 9 -1 1 7 1 3.3030971283513764
7 3 1 1 10 1 -0.8558499590294617
10 7 1 1 8 1 33.44054494504993
7 9 -1 1 4 1 0.5591748062092361
10 8 -1 1 8 -1 0.05723238302969501
0 6 1 1 6 0 0.022135092197739282
0 7 -1 -1 11 1 64.231755893501
10 9 1 1 9 -1 -142.5568879073451
7 8 -1 1 9 0 0.5680570503397167
2 4 -1 -1 5 -1 91.9133477239549
7 0 1 1 6 1 -0.006074773831295843
1 1 -1 -1 7 -1 133.62397125316875
2 3 -1 1 7 -1 64.89627829874924
1 10 -1 1 5 -1 238.09658740864705
2 4 -1 1 10 1 108.64961752726693
6 4 1 -1 8 1 -7.32010945476063
7 3 -1 -1 9 -1 3.167493563994527
4 0 1 -1 9 1 0.0
0 0 -1 -1 11 -1 478.99131994974175
6 3 -1 -1 7 1 5.735795457811869
1 10 1 -1 0 0 0.0011405967157031328
5 5 -1 -1 4 1 9.91202380557247
1 10 -1 -1 6 1 21.560624899979906
8 6 -1 1 6 0 0.8477568987120095
11 5 -1 -1 4 -1 0.14508362644966794
4 3 1 1 8 0 0.6219969282778806
3 10 1 -1 11 1 -0.17238564277476076
8 1 1 -1 1 -1 2.6439002961680678
8 10 1 -1 7 -1 -17.204645375266182
9 1 -1 1 9 -1 0.0
1 9 1 -1 4 0 0.015223565855230953
8 10 1 1 10 1 9.960181847384057
1 5 -1 1 2 1 204.82555888821642
4 11 -1 1 5 0 4.1498489554427715
9 10 1 -1 2 0 -285.51700435916104
5 11 -1 1 2 0 2.0956509593143284
11 8 -1 1 4 0 0.06853471349808166
10 2 -1 -1 0 -1 0.3813825997107353
10 4 1 1 11 -1 -623.9852954988637
5 11 1 -1 5 -1 -0.5361015930924482
3 9 1 -1 8 0 0.07418585201216658
3 4 1 1 7 0 0.289560803445038
6 3 -1 -1 8 -1 5.781142383609812
10 8 1 1 7 -1 -260.240821261094
1 8 -1 1 2 -1 0.0
11 6 -1 1 5 -1 0.041435261550490925
1 4 1 1 7 0 0.06505791717376742
4 1 1 1 4 -1 0.0
3 0 -1 -1 4 0 39.724801022132546
10 4 1 -1 2 -1 16.520590395297322
8 1 1 -1 1 0 2.90795486219579
4 8 1 1 8 -1 0.4243064787601276
0 8 1 1 5 1 0.018313132167905182
10 11 -1 1 4 1 0.26457167833617146
6 8 1 1 8 -1 -0.8508537442872335
4 7 -1 -1 4 0 16.752716487963706
5 4 -1 -1 6 0 10.586080141558357
5 0 1 -1 10 -1 -0.02079114885877284
2 1 -1 -1 2 0 90.36508837617177
11 8 1 1 4 -1 -670.3039522117532
7 1 -1 1 2 1 2.49276021637995
0 11 1 -1 4 0 0.010334236722767877
0 1 1 1 5 -1 0.03351892162079237
8 11 -1 1 9 -1 0.4480640229481186
8 11 -1 1 10 1 0.44191998719219816
3 6 -1 1 1 -1 28.727199173728163
11 7 -1 1 5 0 0.04551776292299764
9 5 1 -1 11 1 -109.07416038469407
9 8 1 -1 6 -1 7.53321118036631
11 5 1 -1 5 -1 60.75825470071257
11 11 1 -1 7 0 -997.9431098362393
7 4 1 -1 10 0 -19.064895442642694
8 3 -1 1 1 0 0.7199058720238818
10 6 -1 1 1 0 0.06470535754818718
7 6 1 1 4 -1 -57.733731902122166
8 7 -1 1 7 -1 0.0
6 7 1 1 6 1 0.750557228164893
10 5 1 -1 3 -1 22.71049228750074
4 11 -1 1 5 1 4.5318378767747705
10 3 1 -1 10 0 -634.4415122882044
0 11 -1 1 0 0 865.5392812356109
5 3 -1 1 11 1 16.30562854993203
4 7 -1 1 11 1 26.372211959733086
1 11 1 -1 8 -1 0.027872347981947848
1 9 1 -1 2 1 0.0
5 4 1 1 5 -1 -4.840643510151392
6 3 -1 -1 11 1 5.778112595279586
6 8 -1 -1 7 0 2.5237152543881005
9 8 -1 1 2 1 0.13234681902758913
10 5 1 -1 1 -1 -42.29918851782216
11 10 1 -1 3 -1 -999.8387356877923
9 7 1 1 2 -1 -170.82487700963105
9 10 -1 1 3 1 0.21214897078239384
9 0 -1 1 8 0 1.430980688933209
1 7 1 1 7 -1 0.03938671173454135
7 8 1 -1 11 1 -47.25423036654819
11 1 1 -1 6 1 -816.65182945568
7 9 1 -1 11 0 -21.690235917787096
3 8 1 1 5 0 -0.48446426140755794
7 5 -1 -1 8 0 2.962192939629626
6 11 1 1 5 0 -7.948788355612175
5 8 -1 1 1 0 9.738854021576664
1 2 -1 1 1 0 51.07637846656349
1 0 -1 -1 11 0 266.2686716250413
6 6 1 1 1 -1 -24.497843060456454
5 7 -1 1 10 0 10.913003052770696
4 4 -1 1 8 0 36.56599132517631
5 5 1 -1 9 0 -2.932775503314561
1 8 1 -1 11 1 0.0
4 6 1 -1 11 0 -0.46230364186926626
9 9 -1 -1 5 0 0.32377266356913315
8 11 1 -1 4 1 -34.949159668747974
2 10 -1 1 1 0 4.104566448733461
8 10 1 -1 9 1 6.894807254288658
0 11 1 -1 3 1 0.013368304820204256
2 0 -1 1 10 0 79.85854020642995
1 6 -1 1 7 0 242.9292423110332
8 5 -1 1 6 -1 0.9011665597007892
7 0 -1 1 3 -1 1.5505578294917743
0 11 1 1 5 1 0.01315827941379212
7 10 -1 1 6 0 0.7201416072291532
6 3 1 1 4 -1 -7.671384044743972
6 10 1 -1 8 1 1.4009412265853027
2 10 1 1 10 1 0.07172113561466936
8 9 1 -1 11 -1 1.7410259835420763
5 4 -1 -1 1 0 6.290656986782013
3 7 -1 -1 5 0 22.881531029892475
11 10 -1 1 9 1 0.0873139284695443
1 5 -1 1 8 1 203.43821520264066
1 5 -1 1 9 0 293.9263904406786
1 7 1 -1 8 1 0.0
3 6 -1 1 11 1 61.07289931548823
7 6 -1 1 8 0 2.383851252878934
5 6 -1 1 0 1 0.0
8 6 1 -1 8 0 -120.6148005854423
10 9 -1 -1 10 0 0.19909380708015
4 10 1 1 7 0 0.3097766730997065
7 10 -1 -1 1 -1 1.5487765907503162
3 7 -1 1 5 0 27.103198906718507
5 10 -1 -1 3 1 2.677497720303323
11 5 -1 -1 6 0 0.1787621825595062
7 3 -1 1 9 -1 3.0922134801619325
0 0 -1 1 4 0 140.58866640251972
2 6 1 1 11 0 0.13628132437124812
6 8 -1 1 1 0 0.0
2 7 1 1 10 0 0.12399570734253818
5 2 -1 -1 3 -1 7.932477627592802
8 4 -1 -1 8 1 1.8166869442533973
0 1 -1 -1 6 0 102.10131059443692
6 2 -1 1 7 -1 5.915791119881902
4 7 1 1 10 -1 0.5806851410992456
11 6 -1 -1 8 1 0.27969673729605904
7 4 1 -1 6 1 -9.406713670839304
9 0 -1 1 9 1 1.6897367748429053
4 2 1 -1 8 -1 0.043261238208584435
11 11 -1 -1 8 -1 0.0
2 6 1 -1 9 1 -0.011351337779408041
10 0 1 1 10 -1 -531.4050081108619
7 7 -1 1 3 -1 1.2837463338344657
1 2 -1 1 7 -1 25.684001407242036
3 9 1 1 5 1 0.14675862000391657
7 1 1 1 1 -1 -5.9588995464193975
7 11 -1 1 5 0 0.675367966941494
11 9 -1 1 9 1 0.06995757712490998
2 2 1 -1 4 1 0.0
1 0 1 1 0 0 0.0
9 3 -1 1 5 -1 0.0
0 1 -1 -1 10 1 182.59791643587533
8 8 1 -1 8 0 6.500212733214512
1 2 -1 -1 8 1 142.71998910022518
6 4 -1 -1 7 -1 4.696931828771965
11 2 -1 -1 6 1 0.0
7 6 1 -1 11 1 -60.59693216300128
4 9 -1 -1 4 -1 6.423387852925965
6 0 -1 -1 4 1 4.292483194183163
2 5 -1 -1 8 1 59.07315149182167
9 10 -1 -1 10 0 0.3091897930207666
11 9 -1 1 5 0 0.0
5 7 -1 -1 4 1 10.405520563299866
5 5 -1 -1 1 -1 5.7029630391623325
4 2 -1 -1 3 0 0.0
4 2 -1 -1 2 1 32.75538977113779
7 7 1 -1 2 -1 0.06413992879732033
10 11 1 1 11 0 38.29568112749121
11 4 1 1 9 0 -934.1314468666558
9 0 1 1 6 0 -125.25718795306886
7 4 -1 1 0 0 0.09229868361759586
8 7 -1 -1 4 -1 0.0
6 2 -1 -1 0 1 3.3665809646611056
6 8 1 1 0 1 -59.21134199288973
0 7 -1 1 10 1 313.5756005879232
4 7 -1 -1 1 1 18.22666574822447
1 4 -1 -1 3 0 126.1167348737744
8 1 1 -1 4 1 -51.18383573271551
11 11 1 -1 9 0 -950.37996069049
3 9 -1 -1 7 -1 6.635197112993046
7 0 -1 1 6 0 2.1217427852724042
5 1 1 1 1 1 0.0
7 7 1 1 5 0 -104.09865997509246
2 0 -1 1 0 1 0.0
0 11 -1 -1 5 -1 47.227001302694944
1 9 1 1 6 0 0.031694141265163386
8 11 -1 1 3 -1 0.4628588514971484
2 7 -1 -1 9 -1 39.297446130202566
1 2 -1 -1 11 -1 178.2332063310036
3 8 1 -1 7 0 0.0771473307146999
6 10 -1 1 1 -1 0.6113373923334583
6 0 -1 1 8 -1 5.318279917265852
7 0 1 -1 6 -1 -0.15619638055681917
5 6 -1 -1 8 1 8.115008402250647
6 5 1 1 5 -1 -14.287442156052029
0 11 -1 -1 2 0 13.791443872597377
11 1 1 1 7 -1 -850.5079795824759
3 6 -1 1 10 -1 64.2795001926468
4 3 -1 -1 0 0 10.52913633524028
5 0 -1 -1 2 0 5.535618347245044
2 2 -1 -1 3 -1 91.92847974859792
7 0 1 -1 8 1 -15.53068018964758
10 4 1 1 10 0 -521.1299907559669
11 6 -1 1 3 1 0.05616660889795368
9 4 -1 1 3 0 0.246722021949273
4 11 1 -1 1 1 -0.5772098413564297
3 10 1 1 1 0 -2.1640439655982653
11 4 1 1 8 -1 -657.0604282948843
3 3 1 1 4 1 0.0007131567113106696
3 8 1 1 0 -1 -5.487867573079565
0 4 -1 -1 7 0 165.89071384677015
7 8 -1 1 2 -1 0.3869520135886129
9 7 1 -1 0 -1 -322.57768939607024
0 2 -1 -1 0 0 129.68390535517338
1 11 -1 1 8 1 42.40295539703981
10 3 1 1 5 -1 10.157053821077396
7 6 1 -1 10 -1 -46.11181752921297
4 0 1 1 4 1 0.0
7 4 -1 -1 0 1 0.0
9 11 1 1 2 1 -282.82869235084263
0 10 -1 1 10 0 456.61488714686345
3 9 -1 -1 8 0 7.120827265642982
1 11 1 1 11 -1 0.029543413303401423
10 0 1 -1 0 -1 21.64962202015763
5 10 1 1 3 -1 -14.167328934779292
3 3 1 1 8 0 0.2782850865750719
8 10 -1 -1 2 1 0.0
8 7 -1 1 1 -1 0.2371326802977885
5 7 1 -1 9 -1 -0.1813548860092027
10 0 1 1 11 1 -210.98287048923154
0 1 -1 -1 0 0 71.40079569233299
7 3 1 1 4 1 -3.6627380987324343
0 1 -1 -1 1 1 179.32310075692794
8 7 -1 -1 8 -1 0.8631964086450818
2 4 -1 -1 3 0 69.8527089878501
0 8 -1 -1 6 0 5.489190969226717
4 5 1 1 3 1 -3.025580777291974
1 11 -1 -1 8 0 43.716673544394524
5 6 1 1 0 1 -15.38993925365008
1 6 1 1 1 0 -0.5118254946184619
6 6 1 -1 0 -1 0.0
7 7 -1 -1 6 0 1.4266621557169101
11 0 -1 1 1 1 0.13766976575387987
6 6 -1 -1 1 -1 4.896867974193974
2 11 1 1 7 1 0.07391472293222213
1 3 -1 -1 3 1 125.1230423136017
7 1 1 -1 6 0 -2.191827627100546
6 6 -1 -1 8 -1 3.904999933937741
10 11 1 1 1 1 -307.9312821997668
1 10 -1 1 2 0 31.421410835051972
2 8 -1 -1 5 0 11.984030569894431
5 7 1 1 0 0 -22.702037682051362
6 10 1 1 2 0 -17.57590702815718
3 2 1 1 6 0 0.23464769220076123
3 2 1 1 7 1 0.31309721123808165
3 0 -1 -1 1 0 27.030322681160246
7 10 1 -1 1 -1 -72.47714835123989
4 11 1 -1 5 -1 0.20012182644402096
3 8 -1 1 5 -1 24.46573666374498
2 7 -1 -1 5 -1 33.43289080971852
8 9 -1 1 2 -1 0.24672773101769255
2 9 1 1 10 -1 0.1041731167556183
6 0 -1 1 4 -1 4.146160309461445
6 6 1 -1 8 1 -10.299395189152456
3 8 -1 -1 6 1 10.307434515731915
5 3 1 1 7 -1 1.2321910575527621
11 6 1 -1 0 0 -997.247397349668
6 4 -1 -1 10 1 6.025731183639486
4 10 1 1 8 -1 0.34997645076035344
4 7 1 1 4 1 -2.2129400334188563
3 3 -1 1 8 0 40.24656466667577
4 7 1 1 5 0 -5.4495664537664
9 8 -1 -1 3 1 0.0
5 4 1 1 7 0 0.9536757267298156
1 4 1 1 2 -1 -0.39460656666072147
11 0 1 -1 0 -1 57.44834072755512
8 3 1 -1 9 0 -81.40195408745171
4 11 1 1 10 -1 0.3999881508799234
9 9 -1 1 5 1 0.13433490257552338
2 5 -1 -1 0 0 35.47267141096042
9 5 -1 -1 1 -1 0.0
9 10 1 -1 7 0 -212.45354085649893
5 2 1 -1 2 1 0.13526973611080714
2 8 -1 -1 0 1 17.58641146525095
7 5 1 1 6 0 -0.6102742919734547
9 5 1 1 0 1 -294.567328884238
11 7 1 1 10 -1 59.535456487945005
9 2 -1 -1 8 0 0.6912421932531936
9 2 -1 -1 9 1 0.9140217252720841
3 10 -1 1 2 -1 0.0
8 9 1 1 6 -1 -53.36010295527627
1 11 -1 1 4 1 79.69654103327426
10 5 -1 1 2 0 0.07734741746762483
1 10 1 1 2 -1 -0.016208894969061853
8 1 -1 1 0 1 1.009189445381004
8 9 1 -1 5 1 4.4489287429728686
10 10 1 -1 3 1 -574.2592147242763
8 9 1 -1 4 0 -62.35032662612666
2 10 1 -1 5 1 0.03765411452969379
10 1 -1 -1 7 0 0.6032136299236159
8 3 1 1 1 1 -14.731712796406182
0 11 1 1 11 -1 0.013636062589025711
3 11 1 1 5 -1 0.07055021986315196
5 8 1 1 11 1 1.282607850622995
5 9 1 1 0 1 -24.282931937770087
6 2 -1 -1 5 0 4.399310566785317
0 10 1 1 1 0 -0.0003141300059522666
9 7 1 -1 6 0 14.469636505453645
3 11 -1 1 0 -1 11.398185327254915
4 4 1 -1 0 0 0.0
3 11 1 -1 10 1 0.1417890376782615
4 4 1 -1 1 1 0.08998631255425751
10 4 -1 1 3 1 0.12698662997075502
1 3 -1 1 8 -1 76.90646249678333
9 9 -1 1 1 1 0.24423483346493577
9 8 -1 -1 7 0 0.35735960717033194
11 10 -1 1 9 -1 0.0249729371784964
8 4 1 1 7 -1 4.042580940762065
7 6 -1 1 4 -1 0.7883558914456413
1 0 1 1 8 0 0.06994335733090183
2 10 -1 1 3 -1 37.88492801388347
1 9 1 1 3 1 -0.04233846247427275
7 5 -1 -1 7 -1 2.5153945403845164
4 2 1 1 11 1 0.0
6 11 -1 1 1 0 1.0674913968641175
8 7 1 -1 4 -1 -16.99171324111019
9 9 1 1 4 0 -198.21868505797255
2 9 -1 1 5 1 54.31319854455604
2 6 1 -1 1 1 0.0
0 1 1 1 4 1 0.03283952834655065
0 3 -1 1 5 -1 0.8156311232885312
8 8 1 1 9 -1 -21.13182830870121
4 7 -1 1 4 1 19.317917011069675
10 10 1 1 4 0 -632.8334381201995
0 7 -1 -1 7 1 98.34251024532162
11 5 1 1 6 0 43.62471091472462
3 4 -1 -1 10 -1 33.226792187853114
0 4 -1 1 9 0 159.23747559179827
8 8 1 -1 2 1 -101.10470153698563
7 1 -1 -1 1 -1 2.054626745507271
8 7 -1 -1 2 -1 4.309677108500372
2 11 -1 1 5 -1 22.13787396999399
7 10 1 1 9 -1 3.4840688539154256
9 7 -1 -1 3 0 0.0
6 4 1 -1 7 -1 -4.601937370174557
4 9 1 -1 6 1 0.2160131151705045
4 6 1 -1 6 0 0.0539599264864244
5 0 -1 1 0 1 5.222612622785661
9 9 -1 1 9 1 0.23119344830306487
3 9 -1 -1 1 0 6.9632696529521105
1 5 -1 -1 8 0 115.79825123336624
5 8 1 1 1 1 -12.878632878607656
3 8 -1 -1 0 -1 7.486664090372185
2 2 -1 1 7 -1 28.974855997902466
4 1 1 1 5 -1 0.0
2 2 -1 -1 10 1 118.30912582940971
3 8 1 -1 0 -1 0.0
7 0 1 -1 9 -1 -7.87504581957181
0 2 -1 1 6 0 2.2807693002950318
11 9 1 1 5 0 -581.4247888510939
9 6 -1 -1 6 -1 0.7263510201907045
7 6 1 1 3 -1 -52.450774478095155
5 9 -1 -1 1 -1 4.247252496694004
10 2 -1 -1 1 1 0.2783181075950083
8 11 -1 1 7 1 0.4508695807003743
5 3 1 1 3 0 -5.945161344238337
8 11 -1 1 6 0 0.360146405697591
3 6 -1 1 0 0 0.0
11 3 1 -1 9 0 -928.1372677340282
11 9 1 -1 1 1 -732.3072808435506
3 4 -1 -1 7 1 36.86077721290363
9 8 1 1 6 1 -106.77093497680416
4 11 -1 -1 3 0 5.0082078831951575
11 4 -1 -1 1 0 0.0
1 4 -1 1 2 -1 27.869873818609506
2 9 -1 1 9 -1 34.15906711230315
11 0 1 -1 2 -1 -464.6534305692802
3 9 1 -1 5 1 0.09910073687661797
8 4 1 1 11 0 -19.983984025291395
4 6 -1 1 6 0 15.482492229874255
10 6 -1 -1 7 1 0.4169867053305092
4 6 -1 1 7 1 24.1411728785473
7 9 1 1 9 -1 4.645408520434238
5 7 1 1 9 0 1.2182198485951485
7 4 -1 1 9 1 2.6277506528501853
9 7 -1 1 2 -1 0.13614495890251482
3 5 -1 -1 3 1 35.091497042465924
6 0 1 -1 9 -1 -0.874851883208242
4 4 1 1 8 -1 0.6269603380307996
3 7 1 1 0 1 -4.6770013923120795
2 5 1 1 6 -1 0.08669768852448415
9 0 1 1 1 -1 5.543331977849485
2 9 1 -1 2 1 0.014628217569097435
5 5 -1 1 7 -1 10.794505332184329
5 5 1 1 11 -1 1.0983884189379278
6 5 1 -1 4 -1 0.4459914249250235
0 7 -1 1 3 0 279.38453054490265
8 9 -1 -1 3 -1 0.9222661728725572
4 5 1 1 6 -1 0.4309056711039301
9 1 1 1 2 0 4.0098066274784285
10 4 1 1 0 0 -384.0470230759138
6 8 1 -1 6 1 1.051927985649378
9 3 1 1 0 0 -58.57374701510287
9 0 -1 -1 2 1 0.36756896351826196
4 5 1 -1 5 1 0.05023301609260735
2 1 1 1 8 0 0.10700408127014584
4 4 -1 -1 11 1 19.16371543901935
1 5 1 1 9 0 0.06064596547253484
6 3 1 1 4 1 -8.931618397083096
4 5 -1 -1 11 0 19.455378043536154
7 6 1 1 0 0 -74.78548490461438
6 9 -1 -1 0 -1 2.356904973342805
3 11 -1 -1 0 -1 3.915609896216645
10 3 -1 -1 6 1 0.38244198521626466
0 1 1 1 8 1 0.02703171417507158
9 2 1 1 2 0 1.97833006790809
5 4 -1 1 10 1 18.472246306929517
10 7 -1 -1 10 -1 0.337032118594516
1 7 -1 1 6 0 223.5686280375154
3 7 -1 1 3 0 36.377716027955664
6 9 -1 -1 9 0 1.599282218352046
0 11 1 -1 0 1 0.0
8 0 -1 -1 6 0 1.0849066588751646
8 9 1 1 10 0 9.336085971067275
3 5 1 -1 1 0 0.036096628633197465
5 9 1 -1 6 0 0.6264152722327756
2 7 1 1 1 -1 -1.7479528679299796
4 10 1 -1 8 0 0.2623039667138569
8 7 1 -1 8 0 0.48946362676168476
6 1 -1 -1 2 1 3.857060542958333
2 3 -1 1 8 0 60.04207108384065
6 9 1 -1 8 0 1.217481949181414
5 2 -1 -1 8 1 11.46978922652236
4 2 1 -1 10 -1 2.6208130960853238e-06
10 5 -1 -1 9 -1 0.47104863147625736
1 1 1 1 7 -1 0.05726884926382734
5 11 -1 1 1 1 1.84443194882658
3 2 1 1 1 1 -0.8177892915550407
0 7 1 1 2 1 -0.009040378308756997
0 7 1 1 3 0 -0.0037069839990942653
11 7 1 -1 10 0 -1000.0
7 2 1 1 3 1 0.6864481670169987
4 10 -1 -1 5 1 2.9595802474817314
3 11 -1 1 3 1 9.648647413215349
0 3 1 1 9 -1 0.03762804602114092
4 0 -1 1 4 0 10.675417758740391
8 2 1 -1 5 -1 -29.96564244482802
3 10 1 1 10 0 0.18448687867003222
4 9 -1 1 3 1 10.330864816316911
11 4 -1 1 1 0 0.0758455052338911
7 7 -1 -1 10 -1 2.6779001094105013
9 5 -1 1 1 1 0.2056445238722281
4 8 -1 1 3 0 11.035125291757188
3 2 -1 1 3 1 23.19366942428257
0 1 -1 1 9 -1 114.19014391213796
1 3 -1 1 11 0 86.73911718586378
9 11 1 1 11 1 20.02247220789438
5 7 1 -1 1 -1 0.0
6 3 1 1 11 1 0.0
10 2 1 -1 7 -1 -461.34836407814555
0 11 1 1 4 0 0.011411070317036708
10 7 1 -1 6 0 22.819501045159196
11 9 -1 1 6 0 0.06505175861329472
6 2 1 1 1 -1 -8.602326614558018
1 8 1 1 10 0 0.04964648542162372
10 1 -1 1 2 0 0.23056968792626775
8 5 1 1 3 1 -94.01483009889142
9 2 1 1 0 1 -45.55959076079683
0 3 -1 1 0 1 0.2118696392232977
3 1 1 1 10 0 0.18116280238106125
4 9 -1 1 7 0 7.920434204091617
11 6 1 1 1 -1 -802.0392114649267
8 5 -1 1 0 0 0.0
3 11 -1 1 9 -1 10.704875006558089
3 10 -1 1 4 -1 18.53791956686995
2 2 1 1 1 0 -0.7591226400063003
8 1 -1 -1 9 -1 1.3732311075847115
11 9 1 1 10 -1 38.57372715002017
6 3 1 -1 1 1 0.24521197808122525
7 3 1 -1 0 1 2.302155925780786
7 1 1 1 10 1 -0.9483537943812146
11 0 1 -1 4 -1 -903.2659497746394
1 0 -1 -1 1 -1 102.13813903780466
1 0 1 1 1 0 -0.013178470502124293
2 7 -1 1 1 0 50.82336016322133
8 3 -1 -1 10 0 1.665893722242869
9 0 1 -1 8 -1 -252.556141918173
7 0 -1 1 8 0 3.763266856982365
0 4 -1 -1 1 1 175.48286558952742
2 8 1 1 8 1 0.1285524642513673
6 5 1 1 11 0 2.7755592377407465
11 7 -1 -1 9 1 0.272455175505227
6 8 -1 -1 11 -1 2.9212828339367616
11 6 -1 -1 5 0 0.10283246266130953
11 3 1 -1 0 0 -1000.0
5 11 -1 -1 10 0 3.211271284420654
7 11 -1 -1 11 0 1.1476073563863927
6 0 -1 1 11 0 5.386689699499737
6 2 1 1 4 -1 -7.996669044596397
0 5 1 1 0 1 -0.06570353452200095
1 9 1 -1 7 -1 0.015507017993137919
9 5 -1 1 3 0 0.24953716725064568
0 6 -1 1 9 1 178.90167680249
9 11 1 -1 6 0 -332.14372193381166
9 2 -1 1 1 -1 0.27807092159727403
8 0 1 -1 5 -1 -21.86237286720913
2 9 -1 1 10 1 138.90888098312269
2 2 -1 1 5 -1 0.0
0 9 1 1 0 0 -0.062108232098458234
9 4 1 1 5 1 6.506272355044918
5 0 1 -1 9 1 0.0
6 8 -1 1 0 -1 0.0
9 1 1 -1 10 -1 -164.08534683209058
7 0 -1 1 5 -1 2.9231483031907795
3 8 1 1 9 -1 0.20115795375946882
6 7 -1 1 10 -1 5.520978953375206
7 3 1 1 11 0 1.7362542415388194
3 4 1 -1 11 1 -0.006455268743846955
10 11 1 1 7 0 -345.47819379342036
9 0 1 1 11 1 -76.50711221606548
10 8 1 -1 4 1 -567.4181497756026
4 10 -1 -1 5 0 3.0623667432555193
8 0 1 1 11 1 -94.5807235826477
6 11 -1 1 5 0 1.4056652858540493
6 11 1 1 6 -1 -19.425325541142346
3 6 1 1 9 1 0.2795940681252203
8 1 1 1 11 0 -58.16486920399126
1 3 1 1 0 -1 -0.5360921629263952
4 8 1 1 2 0 -10.491388405532328
1 9 -1 1 11 -1 293.06013519431275
3 9 -1 -1 11 -1 8.03044853711087
2 6 -1 1 3 1 65.98152804543366
10 5 1 1 9 0 -120.78731573900791
6 0 1 1 11 0 0.048578958891042245
11 10 1 1 11 0 72.2109299560574
7 7 1 1 9 0 4.711863969564337
5 9 -1 -1 7 1 2.6842647153400625
3 10 1 1 5 1 0.14276909330149715
3 5 1 -1 5 -1 0.03456530963938485
2 10 -1 -1 11 0 20.078809312985893
4 3 -1 1 8 0 27.435771323269847
8 0 -1 1 7 1 1.5548879450613677
8 10 -1 1 1 0 0.31741794972975024
8 2 1 1 1 -1 -3.324467013364547
8 2 -1 -1 5 -1 1.426339610673776
9 10 -1 -1 6 -1 0.0
0 0 -1 1 3 -1 49.04102863537429
10 3 1 -1 7 0 -448.8963869371527
9 6 1 1 8 1 17.73033740140916
3 3 -1 1 9 -1 35.574208238119006
9 10 -1 1 5 1 0.16550469096375103
9 9 1 1 0 0 -372.1997174510574
9 8 1 1 1 1 -386.6157150479304
9 9 1 1 3 0 -319.6495437305034
7 9 1 -1 1 0 -43.627627266243195
6 3 1 -1 5 0 -3.708785138760205
8 0 -1 1 9 -1 1.7770088384781657
7 2 1 1 4 0 -1.7425732260865425
11 0 1 1 7 -1 -960.570432152979
7 1 1 1 9 -1 -1.98764880146818
5 8 1 1 9 1 1.1676358661500847
6 6 1 1 4 1 -18.624981472575872
6 4 1 1 11 0 2.0836467330150277
2 7 -1 -1 10 0 55.68925538452805
10 9 1 1 2 1 -409.5227856492519
3 5 1 -1 10 0 -0.08524896721210938
7 8 -1 -1 11 -1 1.3051725639920664
3 10 -1 -1 11 -1 10.470276120718411
1 8 -1 -1 4 0 24.109462173390213
6 1 1 -1 4 -1 -0.2611897540067053
7 6 -1 1 3 0 1.5268188311503679
7 7 -1 -1 7 0 2.01540809568805
9 0 -1 -1 10 1 1.1542912347888938
6 11 -1 1 6 0 1.1256313863039682
10 5 -1 1 3 -1 0.08545069366727309
6 5 -1 -1 6 1 5.113072870586231
6 5 1 -1 8 0 -11.52337191392834
7 4 1 1 1 -1 -35.82448952492934
3 7 1 -1 7 -1 0.04552606068981314
2 10 -1 1 2 1 28.333351671169414
5 0 -1 1 5 -1 5.8359706440080235
3 7 -1 -1 3 0 25.823833565785517
10 0 1 1 7 1 -611.8881118881118
10 7 1 -1 3 1 -325.2236039736789
10 2 1 1 4 -1 -7.042077372846055
7 2 -1 1 5 0 2.5116229605456777
7 2 -1 1 4 1 3.1286190085684153
3 11 1 1 3 1 -0.1808817425554835
8 3 1 1 7 -1 0.30127479081175323
9 8 1 1 9 1 21.738322823401692
11 11 1 1 10 1 -1000.0
9 1 -1 -1 6 1 0.650679887840028
4 7 -1 1 2 0 21.85821626597897
10 5 -1 1 3 0 0.11164149142200534
6 10 -1 -1 8 -1 1.2401639281194519
5 10 -1 1 7 0 2.9227523482938027
4 3 1 -1 2 1 0.05593937130678174
5 10 -1 1 6 1 2.5175529308266955
5 11 1 1 1 1 -10.246875308305553
5 2 -1 1 0 1 13.845734533576426
10 3 1 -1 9 1 -541.3551601913027
6 2 1 1 3 -1 -9.1046580306821
9 10 1 1 2 1 -329.07282167897586
6 5 -1 1 6 0 2.4162016414247884
5 8 1 1 10 1 1.1977015572467258
9 2 -1 -1 4 1 0.663116586929563
5 6 -1 1 10 -1 8.083904396973303
9 11 1 -1 9 -1 -121.99826003450258
4 0 -1 1 2 0 0.8284465646710579
10 4 -1 -1 8 0 0.3904100253501404
10 1 -1 1 5 0 0.0
5 2 -1 1 10 -1 13.080515794864981
4 9 -1 1 5 1 6.914216567206455
4 9 -1 1 4 0 7.663269251862059
7 7 -1 1 0 0 0.0
0 7 1 1 4 0 0.012301020254050297
1 8 1 -1 5 1 0.014802784566879824
9 3 -1 -1 9 -1 0.6923058783319114
9 6 1 1 4 1 -237.11917355045793
4 3 -1 -1 2 -1 13.870116428169833
6 1 -1 1 10 -1 6.984078391353239
7 9 1 1 4 1 -76.59259513165433
4 7 1 1 9 0 0.6085605787163829
3 4 -1 1 1 1 31.876557745187142
5 9 -1 1 3 1 3.4535046712653057
11 5 -1 1 7 1 0.02506571742908717
1 2 1 1 11 -1 0.05135434049334342
2 8 -1 -1 3 -1 24.42581435660086
1 3 1 1 10 -1 0.06332553086609499
9 3 1 -1 10 1 -246.2901830914463
6 4 -1 1 8 0 4.977485785729936
7 5 1 -1 1 -1 0.0
8 6 -1 -1 6 -1 1.1992185723593147
1 7 -1 1 3 0 203.5121755378126
1 10 -1 1 0 1 77.355605167047
3 7 -1 -1 11 0 29.43719864428534
5 10 -1 -1 11 1 3.3589353902149846
10 11 1 -1 10 -1 14.982825033451547
6 2 -1 1 10 1 6.9541908802876815
11 4 1 -1 8 -1 -896.5841494461484
9 1 -1 1 2 0 0.2713706878982114
5 3 -1 -1 4 0 11.828833374588328
3 9 -1 1 6 1 40.43098929845492
3 9 -1 1 7 0 28.32859845727098
6 2 1 -1 7 -1 -2.5897481572835517
4 3 1 -1 7 1 0.04248031751632034
6 2 1 1 3 0 -5.200541852785156
5 9 -1 1 6 1 3.2822031885170198
5 9 -1 1 7 0 3.396684746558554
5 11 1 -1 9 1 0.7079813056657144
4 8 1 -1 7 1 0.17258813690454078
0 3 -1 1 9 0 0.22823227987693984
0 3 -1 1 8 1 45.46553410059492
0 7 -1 -1 11 0 84.0921595449343
11 11 1 1 0 0 -994.5025689464779
4 3 -1 1 10 0 31.419606640523124
2 3 -1 1 6 -1 48.396526370857224
3 11 1 -1 11 1 0.11872986887145895
6 3 1 1 3 1 -4.895040030936293
9 7 1 -1 10 0 -239.01333073218012
11 3 1 1 11 -1 -647.1681588466163
4 8 -1 -1 4 0 9.62535974169351
7 8 1 1 3 1 -79.06861088014588
8 10 -1 -1 4 -1 1.0561413153914794
5 11 1 -1 1 1 -16.487380395604887
6 3 -1 -1 7 0 7.165899253921943
5 5 -1 -1 4 0 13.901865295373334
5 7 -1 1 9 -1 5.35281797512129
9 5 1 -1 6 -1 5.44557887665661
6 10 -1 1 11 -1 0.8999494498390042
1 2 -1 1 2 -1 19.346171153428266
9 2 -1 1 7 -1 1.0418897065661508
2 7 -1 1 0 -1 0.0
0 5 1 1 9 -1 0.03296892106689949
7 8 -1 1 4 1 0.48904508136850533
7 5 -1 -1 11 -1 2.959455783086993
3 0 -1 -1 9 1 41.60876090982851
8 10 1 1 10 0 7.809223674705422
9 9 1 -1 7 1 6.845123969745325
10 10 -1 -1 8 -1 0.12922643756697186
3 2 1 1 0 -1 -0.44053969561589157
9 1 1 -1 0 -1 12.384571107220577
0 3 -1 -1 11 1 151.78680107523348
5 0 -1 1 3 -1 0.0
11 4 -1 -1 3 -1 0.11149808514755183
3 9 1 -1 8 1 0.08224521111386193
6 9 1 1 4 0 -43.67874766955349
9 8 1 -1 6 1 15.863654358941083
3 0 -1 1 11 -1 32.445878589590166
4 5 -1 1 1 -1 13.046326526035017
3 0 -1 -1 4 1 33.2299023212331
9 1 -1 -1 0 1 0.5122180008911269
10 7 -1 1 9 1 0.030913712670670484
5 4 -1 1 9 -1 9.844521833806754
6 10 -1 1 7 1 1.454493666831573
9 0 -1 1 0 -1 0.3311745474421271
11 9 1 -1 2 1 -999.9446143922162
10 10 1 -1 4 0 -368.1663632935573
4 7 -1 -1 4 1 16.23336490274602
5 4 -1 -1 6 1 10.13091815012908
9 9 -1 -1 7 0 0.3329270774113544
1 9 -1 1 1 -1 0.0
9 4 1 -1 5 -1 2.332751602109231
4 1 -1 1 6 1 13.678275610523338
10 1 1 -1 7 -1 -595.7919163686064
9 3 1 1 7 1 -124.50632631124942
1 2 1 1 4 0 0.05199069825238687
8 11 -1 1 10 0 0.39446889855679435
0 0 1 1 5 1 0.025667977308603422
7 9 -1 1 11 1 0.0
9 5 1 -1 11 0 -151.48402548804444
4 7 -1 -1 7 -1 13.039556469575768
3 2 -1 -1 5 -1 41.550945769694735
4 4 -1 1 2 -1 0.0
8 3 -1 1 1 1 0.9135162415272144
5 11 1 1 9 0 0.8686080760814869
7 5 1 1 5 -1 -24.504976564399996
4 6 -1 1 11 1 41.03025357858069
11 8 -1 1 8 -1 0.049687845622383126
9 11 -1 1 11 1 0.32519082183969966
10 6 1 1 2 1 -658.1541085267894
5 2 -1 1 11 1 15.112723878239962
5 2 -1 1 10 0 12.780793489553803
6 8 -1 1 4 -1 1.7077335392029624
5 3 -1 1 11 0 16.764178333414222
2 0 -1 -1 8 1 87.1926676260445
10 7 1 1 2 0 -604.2332504989427
6 3 -1 1 9 -1 6.551314924912408
9 11 1 -1 10 -1 11.92975376372455
6 5 1 -1 8 -1 -1.533032782141316
3 4 1 1 4 -1 -0.6716824396520056
6 8 -1 -1 7 1 2.950433830572765
4 8 -1 -1 1 -1 10.17304877034406
9 0 -1 -1 3 1 0.5961642516401781
8 9 -1 -1 4 0 0.695715762225041
3 3 -1 1 9 0 42.82688063307201
4 4 -1 -1 10 1 24.952123807613745
3 9 -1 -1 5 0 6.19868865365199
5 10 1 -1 0 0 -7.9979205961949456
9 9 1 -1 11 1 -27.774764157299927
5 3 -1 1 10 1 13.224871961197547
0 9 -1 1 7 -1 643.5281058063277
6 11 1 1 6 0 -26.207088420402687
1 2 -1 1 1 1 0.0
2 6 1 -1 11 1 -0.004583512618043439
0 1 -1 1 3 1 7.3038320236433325
9 9 -1 1 10 -1 0.14603671633008927
5 7 -1 1 10 1 8.08986804116153
7 7 -1 -1 1 0 2.9032136456690103
4 4 -1 1 8 1 33.46492527039709
5 5 1 1 10 1 1.3433934451759912
10 7 1 1 9 -1 15.160942528409421
3 3 -1 -1 6 -1 35.839359342632804
9 9 -1 -1 5 1 0.3793971215993684
8 11 1 -1 4 0 -211.78071869741382
8 6 1 1 9 0 10.35217882544253
8 10 1 -1 9 0 6.254438750430979
8 6 1 1 8 1 9.337772726938018
2 0 -1 1 10 1 90.87776636842321
1 6 -1 1 7 1 299.1357409640847
5 2 -1 -1 9 1 11.624461904568662
0 11 1 1 5 0 0.011569743364125234
1 0 1 1 5 1 0.051958111975648424
1 5 1 1 0 1 -0.8828553722120512
2 10 1 1 10 0 0.08656424965104499
1 0 1 1 1 1 -0.07073974584784747
1 10 1 -1 3 1 0.03167665438003863
4 9 -1 -1 1 1 6.690668619947645
9 3 1 1 3 0 2.3127736019439915
6 4 -1 1 7 -1 5.206124439880186
1 0 -1 1 6 -1 52.41613428765204
7 3 -1 1 5 -1 1.2968356423671528
8 6 1 1 3 -1 -141.28072896795595
0 11 -1 1 3 0 73.92731489699548
10 2 1 1 8 1 -299.69005582329106
1 7 1 -1 7 0 0.0
11 9 1 -1 2 0 -739.2692666216536
5 6 -1 1 0 0 7.723286366789187
8 6 1 -1 8 1 -144.417672281504
7 7 -1 -1 11 -1 2.5025493870389237
10 9 -1 -1 10 1 0.22795529577574047
9 10 -1 1 3 0 0.21063851725603444
4 10 1 1 7 1 0.35657325037518
7 5 1 1 4 0 -34.21225920841059
9 1 1 1 5 1 -103.970717738588
9 1 1 1 4 0 -102.6287640252181
9 7 1 -1 3 1 -209.5598952593431
0 0 -1 1 4 1 277.7526490757341
10 6 1 -1 11 -1 -633.6478692247923
4 0 -1 -1 0 1 17.264292418479254
2 6 1 1 11 1 0.13461703990129614
3 11 -1 -1 7 0 7.4673671212732255
2 7 1 1 10 1 0.12742171487035647
2 7 1 1 11 0 0.14320498441412985
4 1 -1 1 0 -1 0.0
6 2 1 -1 2 0 0.3249197318507179
6 11 -1 -1 3 0 1.4915218193986641
7 4 1 1 6 -1 -0.2224592068806599
10 0 1 -1 3 1 -371.1538105956228
2 6 -1 -1 4 1 69.09431660301993
2 6 1 -1 9 0 0.0
3 4 1 1 3 1 -1.7295044310014116
8 9 -1 -1 8 0 0.574807454356256
11 9 -1 1 9 0 0.054038307247805915
6 5 1 -1 2 1 0.7441596709913674
1 4 1 1 3 1 0.021731583875613244
8 8 1 -1 8 1 -1.3404521263730333
11 1 1 -1 0 -1 50.477641922070255
4 4 1 -1 7 -1 0.024188791569617885
8 1 -1 -1 5 -1 1.2261380440733705
8 6 1 1 11 1 4.814144438139504
8 1 1 -1 9 -1 -72.76626821272133
0 2 -1 1 3 -1 0.0
8 9 1 1 3 -1 -175.7384513267601
4 2 -1 1 8 -1 20.67146602248138
4 11 -1 -1 8 0 5.0709267470952835
6 8 1 -1 1 -1 -6.401690348988745
2 1 -1 1 10 1 46.53262589466802
5 7 -1 -1 4 0 9.606148557443486
1 4 -1 1 8 1 140.5847707312316
4 2 -1 -1 3 1 27.319626143775217
10 5 1 -1 11 -1 -529.5208193401877
4 2 -1 -1 2 0 22.28438705017953
3 2 -1 -1 3 1 45.88568367594445
4 3 1 -1 6 -1 -0.2707302001842652
3 9 -1 1 4 -1 29.285533490805655
9 0 1 1 6 1 -124.37606145753556
3 1 1 1 11 1 0.0
9 4 1 -1 2 1 -14.758223230851968
6 0 1 -1 10 0 -0.8744580212112919
11 8 1 -1 2 -1 -576.2896191449532
6 0 1 -1 11 1 0.03488604335748544
1 8 -1 1 2 1 243.1796368696933
7 11 -1 1 3 -1 0.6370515097311629
11 4 1 -1 2 1 59.25276813119509
6 8 1 1 0 0 -26.28627829152439
2 6 -1 -1 5 -1 80.35166181788354
0 7 -1 1 10 0 779.3352739963049
4 7 -1 -1 1 0 15.652529298737567
4 7 1 -1 7 1 0.1130867848834453
7 3 1 -1 6 1 -19.972232395685204
8 1 1 -1 4 0 -55.358185398178165
0 2 1 1 2 1 0.01976992377814625
2 1 -1 1 5 -1 21.050026009835598
7 7 1 1 5 1 -43.48255832915561
6 4 1 -1 0 0 0.0
7 10 1 -1 6 -1 -0.7377246958829577
6 4 1 -1 1 1 0.4213678609090781
3 8 1 1 8 -1 0.2214589100673478
4 10 -1 1 11 0 8.898561336256922
3 9 1 -1 9 -1 0.1061787414326255
4 10 -1 -1 1 0 4.6092104667196665
8 8 1 -1 4 -1 -29.29524233343519
1 11 -1 1 10 0 112.97438521675055
8 8 1 1 10 1 10.35321560315346
3 8 1 -1 7 1 0.06670278031587666
3 9 1 1 9 0 0.18940140594021052
11 5 -1 1 1 -1 0.031632321268675614
3 9 1 1 8 1 0.2368939493327308
8 2 1 1 10 0 -15.359723267523247
2 4 1 1 1 -1 -1.5490498596539006
9 1 1 1 8 0 -109.31019178257887
9 6 1 1 6 1 -23.367074241811682
4 3 -1 -1 0 1 11.91486348173949
5 0 -1 -1 2 1 11.599341111989139
1 7 1 1 5 0 0.02920453500750206
5 5 -1 -1 10 1 9.982874817468861
0 8 1 1 6 1 0.017914352419354105
3 11 -1 1 6 0 9.968051069354432
8 5 1 1 9 -1 8.053040836347579
9 3 -1 1 6 -1 0.7151302080634123
7 0 1 -1 8 0 -11.710741420214198
1 9 -1 1 7 -1 265.55862867211505
7 8 1 1 4 -1 -63.82732565720818
3 3 1 1 4 0 -0.054905557849671494
1 3 1 1 3 0 0.019269256381139025
1 2 1 1 2 0 -0.17507628354043908
4 4 1 -1 11 -1 -0.2022520022851405
3 11 1 -1 0 -1 -0.12390697946606533
0 4 -1 -1 7 1 161.42629063470986
4 9 1 1 10 0 0.5283845091412507
7 5 -1 1 8 0 3.200980972656376
7 0 -1 1 11 0 3.8501979630952343
0 2 -1 -1 3 0 226.98104640852
4 0 1 1 5 1 0.017982927408543237
8 8 -1 -1 11 -1 0.8592092742671175
4 0 1 1 4 0 0.001398649288311184
9 11 1 1 2 0 -307.32417604911404
2 6 1 -1 10 -1 0.009728162601316979
0 10 -1 1 10 1 482.64433193661745
9 9 1 -1 0 0 -356.0523681140484
5 11 1 -1 2 -1 -14.83230877488229
7 2 -1 1 8 -1 2.6515621978868897
5 10 1 -1 3 -1 -4.835464618523516
8 10 -1 -1 2 0 1.3204189341035577
2 6 1 1 1 1 -1.5018443858158177
6 6 -1 1 8 0 3.9271136086189746
4 10 -1 1 2 -1 5.266384460381818
0 3 1 1 6 0 0.03538952237424034
0 1 -1 -1 0 1 157.71749232732253
0 1 -1 -1 1 0 503.16876300177177
7 2 -1 1 9 1 4.335012828727184
10 8 1 1 3 0 -332.0254894841286
11 7 1 -1 5 -1 -477.35577788224185
4 5 1 1 3 0 -6.090535637691155
11 7 1 1 0 1 -895.6801998650587
2 3 1 1 0 0 -0.39780385502552473
4 1 1 -1 10 -1 0.0
6 8 -1 -1 11 0 2.8105576992280423
5 10 -1 1 11 1 6.936503548764025
7 7 1 -1 6 -1 2.6958957085655544
8 0 -1 -1 4 0 1.4984889402938688
3 2 1 -1 9 -1 0.0
7 1 1 -1 6 1 -8.721406759462317
10 9 -1 1 2 0 0.27105423201061773
10 11 1 1 1 0 -620.237932438914
6 11 1 -1 7 0 1.3315320485095772
2 8 -1 -1 5 1 24.338093969338313
6 11 1 -1 6 1 1.9472587983582492
3 2 1 1 6 1 0.2651621333353423
3 8 1 1 4 -1 -1.5684845575355333
3 2 1 1 7 0 0.3575195281981048
6 0 -1 -1 1 -1 3.296022165987587
8 5 -1 -1 4 0 2.112427990165533
10 3 1 1 0 -1 -106.96030624884416
9 6 1 1 2 -1 -93.19355409785288
3 2 -1 -1 9 1 57.45784050379071
8 9 -1 1 5 0 0.24313919271701884
8 11 -1 -1 5 1 0.5706664607521429
8 11 1 -1 2 0 -173.12289098218972
3 4 -1 1 2 1 51.467107723618945
9 3 1 -1 2 0 8.45279575402197
6 4 -1 -1 10 0 6.275749041612606
8 3 1 1 6 -1 -0.9362529139872726
10 6 1 1 11 0 -572.8639849723049
10 8 -1 -1 8 -1 0.16750727262464038
1 9 1 -1 6 -1 0.00936067480266839
3 10 -1 -1 2 0 5.877576575150081
4 2 1 1 1 -1 -1.3712285295673443
7 7 1 1 2 -1 -40.18198539798166
3 10 1 1 3 -1 -0.9138639258191097
8 3 1 -1 9 1 -63.84395137381185
9 10 1 1 8 -1 -140.18644539894723
3 11 -1 1 10 0 16.585482685441455
9 9 -1 1 5 0 0.13356672165465705
4 6 1 -1 3 1 0.08824723139858412
2 5 -1 -1 0 1 33.70990677689921
9 6 1 -1 10 1 -247.40465189619846
9 10 1 -1 7 1 11.83286516063109
7 6 -1 -1 11 -1 2.7127369531162335
5 2 1 -1 2 0 0.10309173449747781
8 0 -1 -1 1 -1 0.9662728506228642
0 11 1 -1 11 0 0.01400368556939476
4 3 1 1 1 -1 -7.553098205806285
3 6 -1 -1 8 0 33.79056886809468
9 5 1 1 0 0 -96.18741183774574
4 3 -1 -1 10 0 25.91783488315552
9 2 -1 -1 8 1 0.8263822023482964
9 2 -1 -1 9 0 0.79808700408236
11 5 -1 -1 4 1 0.1744946818376719
5 1 1 1 2 -1 0.0
1 8 1 1 2 0 -0.3786812137417647
9 10 1 -1 8 1 13.881351940181723
10 10 1 -1 3 0 -660.399747317573
7 7 -1 -1 9 0 2.188062947105549
8 1 1 1 1 -1 -2.4386926048282533
7 2 -1 -1 2 -1 3.024060160043856
3 10 1 1 9 -1 0.2037228679682232
9 7 1 1 5 -1 -281.3475158271914
8 3 1 1 1 0 -30.36949710368726
0 6 -1 1 3 1 253.95622105526232
7 10 1 1 11 1 4.964168415993007
8 2 1 1 8 0 -17.674145025861673
6 2 -1 -1 5 1 4.461661449226944
9 3 1 -1 11 1 -233.81231178512593
0 10 1 1 1 1 0.005906476032724302
8 0 1 -1 9 1 -79.69051920021366
9 7 1 -1 6 1 13.95134240042851
1 7 1 -1 3 1 0.0
6 3 1 -1 11 -1 -1.0947731546458495
8 6 -1 1 7 -1 0.0
10 7 1 1 2 -1 -606.1855328586923
10 3 -1 1 3 -1 0.16149415716281765
0 5 1 1 10 -1 0.025378414534845538
4 3 1 -1 5 1 0.05806563047672579
1 5 1 1 8 1 0.07372057463391544
6 7 -1 -1 4 0 4.025262765815045
9 6 1 1 5 -1 -255.88775499200406
3 4 1 1 10 1 0.27853761614596895
7 5 -1 -1 6 -1 2.593115741181279
10 1 -1 -1 2 -1 0.17028511463129856
5 1 1 1 8 0 0.5396633294225808
10 2 1 1 1 0 10.905268817205764
5 0 -1 -1 9 -1 7.613314101498197
4 10 1 -1 7 -1 0.21552218199150827
6 9 -1 1 6 0 0.986297920761114
5 9 1 -1 5 -1 0.4513349258620359
1 5 1 1 1 0 -0.6773126196405509
7 11 1 1 11 1 4.618730022596755
5 4 -1 1 6 0 25.605737109283222
3 2 -1 -1 2 1 42.49007033572018
4 7 -1 1 4 0 11.201395231874098
6 3 -1 1 11 0 8.99818299924526
7 10 1 1 3 0 -80.23374820902748
3 4 -1 -1 11 -1 36.57763528463142
5 3 1 1 11 -1 1.0381636470718485
7 11 1 1 10 0 4.229235087037415
7 1 -1 -1 0 -1 1.6343418906636171
5 1 -1 1 2 0 5.0410812238305525
5 6 1 -1 8 0 -1.5452199482695559
7 6 1 -1 3 0 -2.6547296575622
6 1 1 -1 1 0 0.3645135384955262
0 0 1 1 11 -1 0.018487888005562784
3 9 -1 1 10 -1 48.57820355333263
9 7 -1 -1 3 1 0.0
2 6 -1 1 4 -1 66.5725783754542
4 9 1 -1 6 0 0.1533865557461086
11 4 1 -1 4 1 6.580222436402277
5 3 1 1 6 1 0.0
5 0 -1 1 0 0 11.307960188755231
6 4 1 -1 8 -1 -2.1201204839966916
9 9 -1 1 9 0 0.16941882133489233
5 4 1 -1 6 -1 0.05757096324398498
3 9 -1 -1 1 1 7.286416402630112
8 10 -1 -1 0 1 0.0
3 8 -1 -1 1 -1 15.71720549996677
7 8 1 -1 7 1 1.900026325166734
2 9 1 1 0 -1 -0.43589769783041
8 10 -1 1 7 -1 0.29818453018524166
11 0 1 1 2 0 -961.0790294712706
2 2 -1 -1 10 0 98.41405092216301
0 0 1 1 4 1 0.025754258712128834
8 5 1 1 0 1 -74.6650721653247
1 3 1 1 6 1 0.07434876547754733
11 9 1 1 5 1 -1000.0
11 1 -1 -1 1 -1 0.12058618206703238
11 11 -1 -1 10 1 0.11122000705972478
0 8 -1 -1 2 0 0.0
3 1 -1 -1 10 -1 53.31796060499104
5 6 1 -1 4 -1 0.12356263668163961
2 4 1 1 10 1 0.15468570838172202
8 3 -1 -1 3 -1 0.6381883626310729
0 3 -1 -1 6 -1 155.7454118776644
11 9 1 -1 1 0 -1000.0
3 4 -1 -1 7 0 37.399684805787466
2 5 1 1 10 -1 0.14404232859148033
3 1 1 1 4 -1 0.0
4 2 -1 -1 4 -1 23.676646873722735
1 8 1 -1 9 1 0.014063494291791503
1 8 1 1 9 1 0.04808368758133458
7 11 1 1 5 1 -67.51857693729534
1 10 -1 1 6 1 85.08387797326421
3 9 1 -1 5 0 0.06810531777134322
6 9 1 1 9 1 2.403851375060942
4 6 -1 1 6 1 39.26590286580426
2 6 -1 1 10 0 111.3079453826678
4 6 -1 1 7 0 17.299958532325263
7 3 1 -1 8 1 -39.94774431758614
5 7 1 1 9 1 1.3729543577841241
8 1 1 -1 2 0 1.4620947900531163
5 8 -1 1 9 -1 3.5470172233963106
7 10 1 1 1 1 -56.71118586412453
0 7 -1 -1 8 -1 66.84798575590291
6 8 -1 -1 4 1 2.082881598911438
3 0 -1 -1 9 0 30.292365408199906
1 6 1 1 7 1 0.051706682602309935
9 3 -1 -1 6 -1 0.7534588223076119
2 4 -1 1 5 0 57.422398949799884
2 3 -1 1 6 0 51.28246384697894
0 7 -1 1 3 1 32.609594416902794
2 2 -1 1 4 0 23.477303097386482
8 11 1 1 7 -1 -110.5440423945393
8 3 1 -1 6 1 -67.31128679239438
9 9 -1 -1 10 1 0.3244347066610993
1 8 1 1 3 -1 -0.06376482002299849
3 11 1 -1 6 -1 0.07986841080069108
0 11 1 1 1 -1 -0.0018329484313908077
11 8 -1 -1 7 1 0.10009654206439549
9 8 -1 1 6 -1 0.14071195308491513
7 5 1 1 7 1 3.8014191802827164
7 6 1 1 0 1 -81.25001604919376
1 7 -1 -1 5 -1 50.41117346237927
10 8 -1 -1 4 1 0.46458677887866445
5 4 -1 1 10 0 18.074042064662088
1 7 -1 1 6 1 283.6199166344798
0 7 -1 1 9 -1 300.7174619939257
0 2 -1 -1 5 -1 223.6929712724289
2 6 1 -1 8 1 7.206219143669808e-08
3 7 1 -1 8 -1 0.05680082067233728
0 10 -1 1 8 1 829.0078596864944
0 11 1 -1 0 0 0.008134645847280166
3 8 -1 1 3 -1 27.976091031394883
8 9 1 1 10 1 10.554767287725161
10 4 -1 1 5 1 0.0
5 9 1 -1 6 1 0.7698133854020067
6 11 -1 -1 0 -1 0.9982674689207612
4 10 1 -1 8 1 0.29054078697990765
0 7 -1 -1 2 1 43.38645882848658
8 8 1 -1 1 -1 -139.9272331356369
9 11 1 -1 3 -1 -290.37890727316625
6 9 -1 -1 7 1 1.7718332415113505
1 1 1 1 6 -1 0.06408176511228922
2 5 -1 1 0 1 70.69430836862844
2 10 1 1 0 -1 -0.5220646159747473
6 3 -1 -1 2 -1 4.957484767746939
10 3 -1 -1 9 -1 0.4913856560789522
5 11 -1 1 1 0 1.7825548659213297
6 11 1 -1 0 1 -35.3726958698504
1 11 -1 -1 0 1 0.0
3 2 1 1 1 0 -1.6521172500744303
4 0 -1 -1 11 -1 20.131999871710324
3 7 1 1 10 -1 0.26871104571189003
11 7 1 -1 10 1 -997.5881497794156
3 10 1 -1 5 -1 0.0807781440583909
0 10 1 1 2 -1 0.005326506964043059
9 5 -1 1 6 -1 0.0
3 11 -1 1 3 0 8.561690229432719
10 0 -1 1 4 -1 0.3494057424675304
4 0 -1 1 4 1 12.698931904944487
7 11 1 -1 2 1 -31.893440529832038
1 3 -1 -1 11 0 113.3162368170631
3 10 1 1 10 1 0.16489050647800088
11 4 -1 1 1 1 0.07191863940750126
6 1 1 1 11 0 0.0
9 5 -1 1 1 0 0.14581909857579275
1 10 -1 1 10 1 227.1928804033712
0 1 -1 1 8 -1 25.084704877845493
0 1 -1 -1 11 1 294.7244938851083
10 11 1 -1 0 -1 -639.2269031091604
11 7 1 1 3 -1 -939.9008273322024
5 9 -1 1 7 -1 3.6157196094402333
2 9 -1 -1 5 -1 12.282318661624071
0 5 -1 -1 10 -1 253.52744931620956
11 7 1 -1 4 0 -877.6982011092272
11 1 -1 1 0 0 0.048838873459103795
1 8 1 1 10 1 0.05920807862102363
8 9 -1 1 11 -1 0.3829395434406285
9 10 -1 1 9 -1 0.18873845235457498
2 11 -1 -1 3 1 15.608810143445405
5 2 1 -1 4 0 0.05486472307457671
9 10 1 -1 4 -1 -195.22120742695353
9 2 1 1 4 -1 3.6825971681046283
4 2 1 1 5 0 0.7242910954427296
4 9 1 1 6 -1 -1.7140739455472649
2 2 1 1 1 1 -0.39169266545617343
2 3 -1 -1 8 0 86.64197867609886
10 2 1 -1 2 0 -68.09211016094747
8 5 -1 1 5 -1 0.7555654262133371
5 7 1 -1 5 1 0.3180810986875267
7 4 1 1 1 1 -19.18067737913214
9 7 1 1 8 1 19.522796670061222
2 0 -1 1 3 0 19.346895410848052
7 1 1 1 10 0 1.250328936116275
7 0 -1 1 4 1 3.1019705138086855
6 0 1 1 7 1 0.19452905213475707
3 4 -1 1 11 0 68.09438719632116
8 3 -1 -1 10 1 1.2021238602825253
1 5 -1 1 11 1 300.95019912932565
11 8 1 -1 1 -1 -1000.0
8 0 1 1 6 -1 -14.226818509240154
2 8 1 1 8 0 0.09829790173526724
5 2 1 -1 1 -1 0.0
3 2 1 1 5 -1 0.07085361468730397
10 5 -1 -1 6 -1 0.4062736212453264
2 8 -1 -1 6 -1 10.823942508900403
11 9 1 -1 9 1 31.926452407466744
7 11 -1 -1 11 1 1.2362734440432062
8 2 1 -1 8 -1 -27.310416282291662
0 6 -1 1 10 0 499.4021356837329
5 8 1 -1 3 -1 0.12987004449549627
4 10 1 -1 2 -1 -0.09435606372223103
6 4 1 1 7 -1 2.0372715987554177
0 6 -1 1 9 0 280.55288136032055
6 8 -1 1 3 1 1.774875634817858
9 11 1 -1 6 1 -56.79226231228488
3 5 1 1 1 1 -2.616641079390162
4 0 1 -1 9 0 0.0
11 6 -1 -1 10 0 0.0
9 4 1 1 5 0 -9.059110961617165
5 9 1 1 7 0 -0.6345925962318462
4 8 1 1 1 -1 -11.767263601293221
5 0 -1 1 9 -1 7.901741053469925
4 1 1 1 10 -1 0.47599199277814735
10 9 1 -1 11 -1 4.38714201496306
0 0 -1 -1 2 -1 243.68574136399928
10 4 1 1 4 1 15.276835171474984
2 10 -1 1 3 1 71.7275780652257
11 0 1 -1 8 1 -979.0179084133761
0 9 1 1 7 1 0.016698125557928104
0 9 -1 1 9 0 474.8890638908518
5 2 1 1 0 -1 -3.4432623503372883
6 10 1 -1 4 1 0.8168803689291705
6 11 -1 -1 6 -1 1.218252681941318
9 0 1 1 11 0 -192.61783957236406
11 8 1 -1 3 0 -996.7392245838271
10 0 1 1 8 -1 -192.8870370258011
6 11 -1 1 5 1 1.1408203554925898
3 6 1 1 9 0 0.2613445239631561
2 5 1 1 1 0 -1.8520557355264609
10 3 1 1 6 -1 12.734008843674982
8 8 1 -1 10 0 -24.245392891389695
3 1 -1 1 10 -1 25.65503078488222
7 11 1 -1 8 1 3.442739755635489
10 4 -1 -1 1 0 0.0
9 11 -1 1 4 -1 0.3206701256460169
2 6 -1 1 3 0 111.769961554657
6 1 1 -1 11 1 -0.964240446519989
7 7 1 1 9 1 5.2830038290103385
2 6 -1 1 6 1 147.70720265572072
1 1 -1 1 1 1 14.40894127508951
7 11 1 -1 9 0 3.454691444455908
5 9 1 1 3 -1 -8.07677559436007
2 10 -1 -1 11 1 18.89539573554369
4 4 1 -1 6 0 0.024230797251109826
3 1 -1 -1 0 -1 28.03201409347371
6 8 -1 1 0 0 0.0
7 11 1 1 0 -1 -77.73461816469379
3 7 -1 1 4 0 41.11389191151182
5 11 -1 -1 9 -1 2.781420120660684
9 4 1 1 8 -1 12.805860122512478
10 3 1 -1 7 1 -559.5369012795325
1 3 -1 1 5 0 75.09789610026925
4 5 -1 -1 4 -1 17.628119925199044
1 11 -1 1 5 1 117.36439028760242
6 2 1 1 5 -1 0.0
1 5 -1 -1 7 1 139.2847809649925
1 7 1 1 9 0 0.046583461237839054
10 11 -1 1 5 0 0.0
9 2 -1 -1 1 -1 0.542874870794904
9 9 1 1 3 1 -308.24269149788506
11 9 1 1 0 -1 -995.1094502981296
10 6 1 -1 10 0 -638.9497634121992
5 1 1 -1 4 1 0.029984410164102873
4 2 1 -1 6 1 0.18246065875316017
9 8 1 1 2 -1 -310.86320631536967
5 7 -1 1 0 1 8.819523450489203
5 11 -1 1 4 1 1.946171587915041
2 7 -1 -1 10 1 53.68911200540556
1 8 -1 1 7 -1 216.8306135161353
6 3 -1 1 3 0 5.514705421580133
4 0 -1 -1 5 0 15.681649363026445
3 5 1 -1 10 1 -0.0033858590080030936
9 7 -1 -1 6 -1 0.5065059479740239
2 11 1 1 9 0 0.05972818065207037
1 8 -1 -1 4 1 29.844180805464237
2 7 1 -1 11 0 -0.00013810765125298725
7 6 -1 1 3 1 1.173361902113412
3 2 1 -1 3 0 0.0
7 6 -1 1 2 0 2.8972462079692676
6 7 -1 1 9 -1 3.350589424349613
8 11 1 1 11 1 9.698931875669349
10 4 1 1 8 1 -506.30478864628395
6 11 1 -1 9 -1 1.7680095976078427
5 11 -1 -1 7 0 2.346348948231624
7 8 -1 -1 1 0 1.6376145392525536
8 3 -1 -1 2 0 0.0
4 4 -1 -1 3 0 17.94888930008978
9 11 -1 -1 8 -1 0.2593088597423622
2 4 -1 -1 2 1 69.21674520117455
8 8 -1 1 9 -1 0.4456837843343163
8 11 -1 -1 2 0 0.7435905481324672
7 2 -1 1 5 1 3.6031001297176646
8 6 1 1 5 -1 -53.770014362574386
7 2 -1 1 4 0 2.1895960323008268
5 1 1 1 7 0 0.6967839740749128
1 8 1 -1 11 0 0.0
6 7 1 -1 8 1 -3.9701409447649203
11 11 1 1 10 0 -817.6954963951048
3 1 1 1 6 0 0.14562075685108178
2 11 -1 1 11 -1 45.725285695941835
9 1 -1 -1 6 0 0.5669692530250124
6 4 1 -1 11 0 -3.7211274360660025
10 5 -1 1 3 1 0.08860121445622296
7 9 -1 -1 4 1 1.0052134185861283
2 10 1 1 6 -1 0.0667785909565885
9 9 -1 1 2 -1 0.02291019499088298
5 10 -1 1 6 0 2.643264317569257
2 6 1 -1 6 -1 0.007113279674932801
2 8 -1 -1 4 1 16.99517935614239
1 7 -1 -1 7 0 55.21541607281152
6 1 -1 -1 10 0 4.865476307989324
7 6 -1 -1 4 0 3.045556153258466
1 11 -1 -1 10 1 66.00262726124461
5 11 -1 1 4 0 1.9177160865536145
5 2 -1 -1 0 0 6.324293766432357
10 1 -1 1 5 1 0.0
2 6 1 1 8 -1 0.13695818995254258
0 0 -1 1 7 -1 381.4444624102743
8 9 -1 -1 5 -1 0.7027472010239484
1 2 -1 -1 1 1 204.75236505756814
7 0 1 1 11 1 -10.132060774438013
2 9 -1 1 7 0 94.64567560108556
10 9 -1 -1 9 -1 0.2103564137512165
7 11 1 -1 10 -1 3.83246660324296
7 9 1 1 4 0 -66.96002054423761
8 0 1 -1 11 -1 -91.2501195247848
10 9 -1 1 5 -1 0.0973751466905691
8 5 1 -1 2 1 4.160694667113569
6 0 -1 -1 0 -1 3.473358845768712
3 7 -1 1 0 -1 40.085955631437486
6 4 -1 1 8 1 5.111176610229911
2 6 -1 -1 3 1 91.36293717261469
10 6 -1 -1 6 1 0.39716581710335624
6 6 1 -1 7 1 -1.028737029370547
1 10 -1 1 0 0 65.75278146015788
5 11 1 -1 5 1 0.3718658766473542
0 9 -1 1 2 0 241.52705585332092
2 5 -1 1 9 0 177.40246733119136
5 10 -1 -1 11 0 3.4306621498803644
2 5 1 -1 9 0 -0.002451757105137965
9 1 -1 1 2 1 0.414382404239012
8 5 -1 1 3 -1 0.35487065773115983
1 6 -1 1 4 -1 102.66993158324723
3 3 -1 -1 3 -1 59.76487375541837
10 10 -1 1 11 -1 0.1285195707448906
10 0 1 -1 11 1 -570.7324504408322
5 1 -1 -1 10 -1 9.038335773333927
4 8 1 -1 7 0 0.14702739447253274
0 3 -1 1 9 1 37.483363770568644
0 3 -1 1 8 0 0.16849406392484478
8 6 1 -1 4 -1 -0.8743980426231825
9 7 -1 1 1 -1 0.08915773575547654
10 6 1 -1 1 0 -460.77050966467027
3 9 -1 1 8 0 14.550535995310856
6 11 -1 -1 2 0 1.3650514501235091
3 11 1 -1 11 0 0.11350350931998746
10 3 -1 -1 7 1 0.421314849020407
3 5 -1 1 5 -1 40.00527229903249
9 7 1 -1 10 1 -304.11523590908484
8 3 1 1 2 -1 -53.439888066929456
7 8 1 1 3 0 -56.76791530270733
1 1 1 1 5 0 0.06480788290209001
1 0 1 1 9 1 0.0
5 0 1 1 3 1 0.3771915934982461
2 5 1 1 11 1 0.1284712179545808
0 2 -1 1 4 0 0.023285766986081854
3 6 -1 1 3 -1 30.579910949821908
1 6 1 1 0 1 -0.6286471462906765
9 1 -1 -1 10 -1 1.0111357026478687
2 1 1 1 4 0 0.09220637678969318
8 7 -1 1 4 -1 0.4007503200271616
10 7 -1 -1 9 1 0.2777404126010506
11 1 1 -1 8 0 -932.9000955377101
7 8 -1 1 4 0 0.6085165597657431
5 7 1 1 5 -1 -11.682891531024177
9 9 1 -1 7 0 18.85858300752596
8 11 1 -1 9 -1 5.460201670226826
6 7 -1 -1 6 -1 3.7697470511134474
8 9 -1 1 1 -1 0.30571991266037774
0 5 1 1 8 0 0.024313972823491445
0 3 -1 -1 11 0 156.723006554352
5 6 -1 -1 3 -1 8.846119890455004
6 9 1 1 4 1 -31.362934810099055
1 9 -1 -1 1 0 4.3020484065902
2 1 1 1 10 0 0.08270288626774994
8 11 -1 -1 9 1 0.6274834098180251
5 8 -1 1 4 -1 3.562138190732355
2 6 -1 1 8 -1 180.16575313370208
11 11 -1 1 8 0 0.15690147386060999
3 9 -1 -1 0 1 3.697049413542829
9 7 1 1 6 1 -42.3953308574836
9 1 -1 -1 0 0 0.5627419612881308
3 8 -1 -1 1 0 17.815314980373053
7 9 -1 -1 10 -1 0.8855827919645212
9 7 -1 1 7 0 0.1346412668006774
9 9 -1 1 4 -1 0.1411382437232524
6 10 -1 1 7 0 1.2080694112647967
5 4 -1 -1 5 -1 9.700248160792015
7 9 -1 1 10 1 0.507790266756433
10 10 1 -1 4 1 -639.6557643132247
6 8 1 1 7 0 -1.044707154428223
6 2 -1 -1 7 -1 5.4272505401658995
9 9 -1 -1 7 1 0.32202315939973736
1 6 -1 1 8 1 334.3380379772413
7 4 1 1 1 0 -27.609243402316743
1 2 1 1 4 1 0.06181921533041414
9 2 1 1 1 1 5.562521718499939
7 9 -1 1 11 0 0.43722877395121346
3 2 -1 1 4 1 38.51117909555501
9 1 -1 1 3 -1 0.45711740427688524
6 9 1 1 2 -1 -39.7652668526422
5 10 1 -1 3 0 -1.1042595073603574
6 3 1 -1 7 0 -4.390990126352775
10 5 1 1 1 1 -620.0509567320454
9 5 -1 -1 1 1 0.452411012529831
9 10 1 1 6 0 -64.5898769894861
5 11 1 1 9 1 0.8873554418881973
4 9 -1 -1 3 1 6.1391342436601875
6 10 1 1 10 1 2.011801322982042
4 6 -1 1 11 0 34.14642842151006
1 11 -1 1 6 -1 98.53370975433319
9 11 -1 1 11 0 0.2533960986694055
9 0 1 -1 5 1 -132.80640346932904
10 6 1 1 2 0 -647.53383235188
6 3 1 1 9 0 0.0
8 10 -1 1 9 1 0.3071622712508809
11 2 1 1 4 0 -841.242156296448
2 0 -1 -1 8 0 101.60086076692251
1 9 1 -1 0 -1 0.0012987248840069729
8 5 1 -1 6 -1 3.449181918090434
6 3 1 1 1 1 -18.725524965004038
8 5 1 1 10 -1 -1.9166377172704507
10 3 1 1 10 -1 -467.0373542682862
11 11 1 -1 6 1 -983.353993571732
9 0 -1 -1 3 0 0.5311055735755792
10 8 -1 1 10 -1 0.07616612781721784
8 9 -1 -1 4 1 0.5065661454257437
4 10 1 1 1 -1 -7.371503579426217
4 4 -1 -1 10 0 18.91842636534475
10 8 -1 -1 10 1 0.2839016244156355
11 7 -1 -1 8 1 0.20567921206244882
5 8 1 -1 9 0 0.13445398695577127
4 1 -1 1 2 -1 1.1077033892322976
9 9 1 -1 11 0 -15.921225871084403
0 4 -1 -1 2 1 193.0630475798092
9 6 -1 1 7 -1 0.0
1 5 1 1 6 0 0.06448598406559168
1 7 -1 1 7 1 213.07639094481175
7 8 1 1 9 1 5.397715604799321
6 11 1 1 6 1 -0.42503952061197914
7 11 1 1 8 1 2.8463526412772726
2 6 1 -1 11 0 0.0
4 11 1 -1 4 1 0.15660600967493168
6 10 1 -1 2 -1 -7.025341911325116
7 7 -1 -1 1 1 4.282451253494742
3 3 -1 1 7 1 48.47077906806105
0 9 -1 -1 7 -1 4.604044687991034
6 2 1 -1 5 1 -4.321377353513675
6 10 -1 -1 9 0 1.7498522812083261
7 0 -1 -1 11 -1 2.8045484944050476
4 5 -1 1 4 -1 14.4473228046293
4 3 1 1 7 -1 0.5528200730175579
8 6 1 1 8 0 7.849874811866073
0 3 1 1 4 -1 0.03614136555450717
8 4 1 1 9 0 6.396623558337359
7 2 -1 -1 0 0 1.8986369465068726
5 2 -1 -1 9 0 10.137476215267267
1 5 1 1 0 0 -0.5042143609569346
11 11 1 -1 7 1 -787.265376697867
1 7 -1 -1 0 1 33.79177913007412
9 2 1 1 9 -1 -57.346540867411306
4 9 -1 -1 1 0 6.061529046709441
3 8 1 1 5 1 0.1246138737188649
3 11 1 -1 2 0 0.012930782711211786
9 3 1 -1 5 -1 -89.88322588734496
3 11 1 -1 3 1 0.04797519372818919
3 1 1 1 2 0 -0.24769595903533478
6 4 -1 -1 11 -1 6.929883621231183
1 2 1 1 8 1 0.06714459282125929
9 5 1 1 9 -1 11.027972473752412
4 6 1 1 2 1 -4.199162651847258
3 5 1 -1 11 -1 -0.032187246506896305
5 2 1 -1 4 1 0.05925264331790318
1 3 -1 -1 7 0 151.69025755870555
1 3 -1 -1 6 1 103.8719419958253
9 6 1 1 7 -1 -3.438831763980435
3 11 -1 1 4 -1 13.480977915552138
9 10 1 1 10 0 4.155375550836775
0 8 -1 -1 5 -1 18.609827580044005
4 2 1 1 3 0 -2.3811292279969667
7 1 -1 1 4 0 2.109392281434592
4 2 1 1 2 1 -0.9226118615941774
4 0 -1 -1 0 0 14.737091255198054
7 3 1 -1 4 1 -0.6036064306232539
3 11 -1 -1 7 1 7.057935995510906
7 3 1 -1 11 1 -15.257034467869971
6 2 -1 -1 3 1 6.463758796666533
1 1 -1 -1 5 0 212.5004010466721
11 2 1 1 8 0 -1000.0
5 2 -1 -1 10 0 11.523828154069008
8 9 -1 1 7 -1 0.25558359979001677
10 0 1 -1 3 0 -293.71042760496965
10 5 1 -1 6 1 -70.88742331897336
2 6 -1 -1 4 0 67.71215127770174
10 0 -1 -1 5 -1 0.4388947219668557
0 3 -1 -1 2 0 176.82772934822702
3 4 1 1 3 0 -1.9908496838641891
11 6 1 -1 4 1 59.125483769419155
10 8 -1 1 3 -1 0.1080480890310874
0 8 -1 1 3 1 81.4891784579093
10 8 -1 -1 6 1 0.20767880554626908
3 7 -1 -1 1 1 33.815163810710246
3 10 1 1 7 -1 0.15714752572894314
1 8 -1 -1 10 -1 20.05681211495874
2 3 -1 -1 4 0 70.41067568171131
8 0 1 1 4 -1 3.2415796342227985
4 11 -1 1 3 -1 5.078665662300429
10 1 1 -1 0 1 12.380347141036193
5 9 1 -1 0 0 -1.9496929119255437
7 11 1 1 9 -1 2.9921973234919985
4 9 1 -1 0 0 0.0
7 7 1 -1 4 0 3.6820828647500883
10 10 1 1 1 0 -613.8445810932391
10 9 1 1 3 1 -344.8249966148567
4 11 -1 -1 8 1 6.028899569363242
2 1 -1 1 10 0 38.34370276674142
1 4 -1 1 8 0 145.32008210998325
11 4 1 -1 1 -1 -830.4705041217981
8 1 -1 1 11 -1 0.0
1 11 1 1 6 0 0.029645367917639033
3 2 -1 -1 3 0 46.32451695993641
6 0 1 -1 8 -1 0.2909106442784719
7 9 -1 -1 0 1 0.0
6 1 1 -1 5 -1 -3.873331456168328
3 10 -1 1 7 -1 22.54879939361658
11 3 1 -1 1 1 38.28526292876846
4 10 -1 -1 4 -1 4.346589913496122
4 10 -1 1 1 1 3.1278710725096786
6 0 1 -1 10 1 -4.7399804487254436
6 0 1 -1 11 0 -6.2979422049660245
8 9 1 -1 0 1 -135.79959804614583
11 4 1 -1 2 0 37.25671712192407
1 10 1 -1 4 1 0.013558132603123605
10 9 1 1 1 -1 -621.7227915341122
10 4 1 -1 4 0 -6.807202264451455
4 2 -1 1 10 0 23.61555634565923
8 1 1 -1 11 0 -32.33162820744397
4 11 -1 1 1 1 7.547015272885842
9 11 -1 1 3 1 0.31969146449526226
9 9 1 -1 1 0 -124.31834467339911
5 11 1 -1 11 -1 0.8183613257629092
6 4 1 -1 0 1 0.18816301811721964
0 0 -1 1 1 1 711.4935540598002
6 4 1 -1 1 0 0.0
0 4 1 1 7 0 0.036805275463463516
7 8 1 -1 2 -1 -15.639543347443142
6 7 -1 1 8 -1 1.907113913643456
11 7 -1 -1 5 1 0.14674207878296575
8 9 -1 -1 10 -1 0.5348187527673416
11 7 -1 -1 5 0 0.0
6 1 1 1 9 -1 0.7985520935619368
3 9 1 1 9 1 0.22297039617450612
4 10 -1 1 6 -1 5.269951805085914
3 9 1 1 8 0 0.13387056259445407
2 10 1 -1 7 0 0.04678384555271298
0 7 -1 -1 1 1 6.665544495379979
2 9 1 -1 4 0 0.03647897019398477
9 10 -1 -1 2 0 0.0
6 2 1 1 11 -1 0.0
7 9 -1 1 1 -1 0.0
1 7 1 1 5 1 0.03617014456861874
0 1 1 1 0 0 -0.03616402700122733
0 4 -1 1 6 1 63.44265652845482
0 1 1 1 1 1 0.015395831354474932
2 4 1 1 3 0 -0.3276173411699519
0 8 1 1 6 0 0.014959051321203641
1 11 1 1 8 0 0.03400026887200565
9 3 1 -1 1 -1 10.059555018031691
6 3 -1 -1 0 -1 3.0330831800294424
5 2 -1 1 2 1 9.354076307199522
3 5 1 -1 9 1 -0.010822892535080099
3 6 1 -1 3 -1 0.0
4 9 1 -1 1 -1 0.008592637838622852
7 6 -1 1 6 -1 1.0805203576513196
10 1 1 1 5 1 -454.6805825009707
1 3 1 1 3 1 0.04589424084816286
9 3 1 1 6 1 3.4552628041035724
3 11 1 -1 1 -1 -0.7193860148082248
1 2 1 1 3 0 0.02690218120322718
6 0 1 1 4 0 -0.5179864715135221
4 9 1 1 10 1 0.5595405717522762
3 2 1 1 2 0 -1.169541555401145
6 9 1 -1 0 1 -1.0514200685303314
0 2 -1 -1 3 1 486.7623725496827
6 0 1 1 2 -1 0.07868516103183247
1 1 -1 -1 1 1 243.63697458962685
3 11 -1 1 8 0 10.928971710779921
2 3 -1 1 9 0 56.49733134959706
9 11 1 1 1 0 -313.67944341321817
2 1 1 1 4 -1 -0.0012693226771684036
1 10 1 -1 6 -1 0.018621062159992374
0 5 -1 -1 7 -1 182.2535773397973
8 9 1 -1 2 -1 -164.00676720966402
4 2 1 1 4 1 0.5557585934841266
4 10 -1 1 3 -1 3.667450285777745
3 10 -1 -1 11 0 10.732920779639203
6 6 -1 1 9 0 4.998190405121761
5 2 -1 -1 4 0 12.379524338535305
0 3 1 1 6 1 0.03761437316427181
4 10 -1 -1 8 -1 4.089342598831311
4 5 -1 1 6 1 26.21960566797698
10 8 1 1 3 1 -614.2933324537097
11 7 1 1 0 0 -463.0224998720622
10 0 -1 -1 3 -1 0.22699653577954568
0 6 1 1 0 -1 -0.07320315314452382
0 9 -1 -1 5 1 14.66445499353456
7 7 -1 -1 3 -1 0.0
2 3 1 1 0 1 -0.6800623108172102
7 4 -1 -1 11 0 3.017070948658705
4 11 1 -1 6 -1 0.1809748068264668
2 1 -1 1 0 1 28.851854818863806
4 4 1 1 11 -1 0.7978082798207758
11 0 1 -1 5 -1 -999.511114849103
4 0 -1 1 5 -1 9.810269690869546
5 3 -1 1 7 -1 11.872630682183164
8 0 -1 1 7 -1 1.357458551213302
6 11 1 -1 7 1 1.7287121892458264
10 11 1 1 2 0 -567.9668768885481
0 10 1 1 3 1 0.010769183054805561
11 7 -1 -1 10 -1 0.2636818973661668
9 2 1 1 8 0 -108.05085203852384
4 7 1 1 3 -1 -9.275040941052895
3 10 1 -1 2 -1 0.0530873753294729
8 9 -1 -1 6 -1 0.557674026285978
8 5 -1 -1 4 1 0.907998891137858
1 10 -1 -1 2 -1 22.259145569599568
3 4 1 1 10 0 0.4068258546891893
4 6 -1 -1 1 0 10.752407585934499
3 2 -1 -1 9 0 74.73321205799299
0 9 1 1 5 1 0.014391139036285375
8 9 -1 1 5 1 0.2925025530697478
6 1 1 1 9 0 0.0
7 1 1 1 4 0 0.11739562227756262
3 4 -1 1 2 0 28.013408587317613
5 7 -1 1 8 0 8.55483436600524
3 6 1 -1 7 0 0.022819605296600362
6 4 -1 -1 5 0 5.399783248851327
10 6 1 1 11 1 -584.2274260520544
7 3 1 -1 8 0 -19.079779513438936
7 3 1 -1 9 1 -39.05713019877935
3 10 -1 -1 2 1 5.950335755612854
11 8 1 1 9 0 77.01787491071036
5 10 1 -1 7 0 0.4674285945064508
5 11 -1 -1 1 1 2.193462423035894
4 4 -1 1 0 0 0.0
3 11 -1 1 10 1 10.801485144406298
4 6 1 -1 3 0 0.044274599402829545
1 0 -1 -1 8 -1 170.31752368046023
8 4 -1 1 2 -1 0.6353779444732156
9 6 1 -1 10 0 -200.1907900052846
3 2 -1 1 6 -1 24.856624971613602
3 10 1 -1 9 0 0.12047766719299091
8 4 -1 -1 7 -1 1.6706266158111631
7 3 -1 -1 7 1 2.7312289109247008
2 0 -1 1 2 0 17.363572917145344
9 3 1 1 2 -1 -89.73950814730266
10 6 1 1 5 0 -271.47664710517034
3 6 -1 -1 8 1 32.6948673655335
10 1 1 -1 5 0 -583.0798482243669
4 3 -1 -1 10 1 23.76431765824587
0 5 -1 1 1 0 23.68862798387992
6 10 1 -1 0 1 -36.67673039440932
11 0 1 1 7 0 -879.945084679997
7 6 -1 1 7 -1 1.5321834480459864
2 1 -1 -1 10 0 135.13197992867833
1 8 1 1 2 1 -0.0480509042512839
8 5 1 -1 7 0 -62.64640315759942
4 6 1 1 0 -1 -12.892683926374827
3 8 -1 1 2 1 29.800884135201745
5 1 1 1 5 0 0.0
7 7 -1 -1 9 1 2.355713241630613
7 2 1 -1 0 0 0.7410811901581957
9 7 1 1 4 -1 -262.1249381872268
9 3 1 -1 4 -1 -2.987984970812521
1 5 -1 1 1 0 78.22356663348052
0 7 1 1 7 1 0.026822568349200288
0 6 -1 1 3 0 0.0
11 6 1 1 4 1 -115.7902484636743
9 0 1 1 0 0 8.095853413208886
5 1 1 1 4 1 0.7134364353189118
9 3 1 -1 11 0 -215.7374269603752
4 4 1 1 9 0 0.6106055980226821
8 0 1 -1 9 0 -67.01523099470936
4 6 -1 1 10 -1 19.018034835873504
7 10 -1 -1 9 -1 0.8223192429453061
0 2 -1 -1 9 0 115.48580753094393
8 2 1 -1 8 0 -58.388217090820945
8 3 -1 1 0 1 1.446288748163552
9 3 -1 1 6 1 0.0
7 1 1 1 2 0 0.45574354236953407
2 11 1 1 4 1 0.07012173147244861
6 9 -1 1 4 0 1.481486318818007
3 7 -1 -1 6 0 21.50475833292526
8 1 -1 -1 0 -1 0.9928128753545412
4 1 -1 -1 5 -1 22.54886688452215
7 9 1 -1 1 -1 -13.277377417850447
3 4 -1 1 3 0 28.75372799732492
7 6 -1 -1 2 1 5.476333671299237
6 11 1 -1 10 0 1.2656127189173452
3 5 -1 1 3 1 52.29136863661648
11 8 -1 -1 9 -1 0.1217556516633375
10 7 -1 -1 11 -1 0.47832717907924344
1 3 1 1 9 -1 0.06717849999749785
10 8 1 1 8 1 3.7772594090407017
6 1 1 1 3 0 0.22212973510243839
1 5 1 1 6 1 0.060070955905512556
4 3 -1 1 2 1 14.51556727570024
8 0 -1 -1 8 1 1.573137908492329
0 7 -1 -1 4 0 13.489002524586574
5 8 -1 1 5 0 2.5028889684812476
8 10 -1 1 11 -1 0.31424180362972476
3 9 -1 1 5 1 17.435977360691503
0 1 1 1 11 -1 0.02599913861709982
6 1 1 -1 1 1 0.28447901840215684
7 9 -1 -1 9 -1 1.1035155497304752
7 4 -1 -1 0 -1 2.8013142452681037
11 4 1 -1 4 0 47.535372001107774
4 4 1 1 5 1 0.6882973895110867
4 4 -1 -1 8 -1 21.492037144961014
6 2 1 1 5 0 0.8640994884762716
10 6 -1 1 3 0 0.07970199150960383
4 2 -1 -1 10 1 27.49592760671
3 7 1 1 2 -1 -4.748330618197299
10 0 1 -1 9 -1 -536.8349773667663
11 0 1 1 2 1 -936.9994902404405
3 7 1 -1 6 0 0.03642021463520316
0 0 1 1 4 0 0.01861495925738026
1 0 -1 1 7 1 150.6847339806872
2 3 -1 1 5 -1 40.21417622352242
7 9 1 -1 9 1 0.5658317388726553
6 2 -1 -1 8 1 5.889959297740809
11 1 1 -1 9 -1 -678.0033915748676
7 5 -1 -1 10 1 3.0454479225469546
7 10 1 -1 3 0 -51.842923168600926
7 2 1 -1 9 -1 -14.470677439574512
2 4 1 1 10 0 0.16576846409843307
11 4 1 1 3 -1 -581.6669780281742
2 6 -1 -1 1 -1 39.57611692642445
10 2 -1 1 0 -1 0.10095127304921923
6 7 -1 1 0 0 7.036193445121192
5 11 -1 -1 0 0 1.5158670087640165
1 10 -1 1 6 0 109.56083425636197
6 9 1 1 9 0 1.898444406401575
2 6 -1 1 10 1 129.00321526396328
11 3 1 1 10 1 -928.321623110907
5 8 -1 1 8 -1 4.865491399514756
3 0 -1 1 9 0 29.182389585071526
11 2 1 -1 6 -1 -992.0846640273057
9 7 -1 1 0 0 0.3419316928864441
5 5 -1 -1 6 0 9.472617557283808
0 11 1 1 10 1 0.014399135574088427
6 8 -1 -1 4 0 2.1535302380232393
1 6 1 1 7 0 0.0518172396647988
6 0 -1 1 0 -1 3.6905468037477256
7 0 -1 -1 10 0 3.016155380722387
7 0 -1 -1 11 1 3.003409425069842
2 2 -1 1 4 1 15.674816599589143
2 11 -1 1 7 1 29.344736912756442
9 9 -1 -1 10 0 0.343073828344907
2 8 1 1 2 -1 -0.42815882708629915
0 5 -1 1 7 0 281.28519768599995
11 8 -1 -1 7 0 0.09963645524830028
7 0 -1 -1 11 0 2.791989777051767
8 0 1 -1 3 -1 -8.429754637479704
10 9 -1 1 6 1 0.08605030507827849
11 7 1 1 11 0 -800.9742628129893
5 6 -1 -1 1 -1 5.98215009425655
9 5 1 -1 4 0 13.62436858167609
4 6 1 1 6 -1 -0.013904457488876087
6 3 1 -1 10 1 -7.03708051336558
8 5 1 1 6 -1 -15.134694875009078
7 11 1 1 3 0 -95.10799739101068
8 8 -1 1 4 1 0.2508312589261006
9 7 1 -1 8 -1 9.132195124553972
7 2 -1 1 7 -1 2.777635743423355
8 3 1 -1 8 -1 -105.57807857235906
5 2 -1 -1 5 -1 13.634373088998984
6 0 -1 1 5 1 3.841663971869089
2 1 1 1 2 0 -0.14119518213479867
0 7 1 1 11 -1 0.022947968621209108
0 8 -1 -1 2 1 12.009545803931262
7 7 -1 -1 5 -1 2.0187457441022483
4 11 1 1 4 0 -0.49431731085805547
1 7 -1 1 0 1 0.0
6 9 -1 -1 7 0 1.641668037091507
11 3 -1 -1 4 1 0.22944231174630697
2 5 -1 1 0 0 0.0
9 3 1 -1 6 -1 -192.36465326728842
3 4 -1 1 9 0 50.20634314260841
2 3 -1 -1 6 -1 75.38207982308563
6 11 1 -1 0 0 -21.135063904469156
3 1 1 1 1 -1 0.0
6 1 -1 -1 11 -1 4.884268455046344
4 11 -1 1 6 1 5.867822629342209
3 10 1 -1 4 -1 0.1055223129662094
0 1 -1 1 2 0 21.919336826943958
7 10 1 1 1 0 -89.974268923754
2 4 -1 1 1 1 101.52780541358769
7 3 -1 1 0 1 1.6580935714891538
1 3 -1 -1 11 1 112.8623173831195
6 4 -1 1 10 -1 6.681119019695211
0 9 1 -1 7 0 0.0
1 10 -1 1 10 0 132.12167384595443
5 8 -1 1 7 -1 4.353209359857423
6 2 1 -1 6 -1 -0.10849670420075586
9 11 -1 -1 9 0 0.2124309586276834
11 7 1 -1 4 1 -149.3342339351572
11 10 1 1 7 -1 -929.109636894322
10 3 1 -1 5 -1 -342.53711526228454
8 9 -1 1 10 -1 0.23614560669189924
9 2 1 -1 6 -1 -213.02356401411026
7 5 1 1 1 1 -23.41500567829149
2 11 -1 -1 3 0 14.931905856996982
9 5 1 -1 9 1 -316.2520053964619
9 2 1 1 5 -1 -43.31215900243128
10 0 -1 -1 4 -1 0.3533631834390326
9 7 -1 -1 7 0 0.5800209766661283
0 11 1 -1 1 1 0.009991549702602852
6 1 1 1 7 0 1.3772924910166497
7 7 1 1 11 -1 5.468027321031533
2 3 -1 -1 8 1 72.64912376063582
8 5 -1 1 4 -1 0.41435359324908283
7 8 -1 1 3 0 0.6030194933045542
0 4 -1 -1 6 -1 111.77624837683781
11 7 1 1 11 1 -1000.0
5 7 1 -1 5 0 0.24435819728824215
0 10 -1 -1 11 -1 124.09668771332682
6 10 -1 1 2 -1 0.7177971628343495
7 0 -1 1 4 0 2.183937514614794
3 3 1 -1 8 0 0.0
7 0 1 -1 5 -1 -9.696506007013268
8 2 -1 -1 0 1 1.613835626923711
6 7 1 -1 10 -1 -10.34602763396424
9 5 1 1 8 1 -0.5995595659537347
4 10 -1 -1 7 -1 3.8911699700748694
3 4 -1 1 11 1 52.235106090983635
1 5 -1 1 11 0 320.2871280803988
10 11 -1 -1 7 1 0.22047478532173304
10 10 -1 1 5 1 0.15959635193638771
6 11 1 -1 1 0 -31.84016325545268
4 7 -1 1 9 0 18.116489336769664
0 8 -1 1 3 0 14.061153711995502
7 5 -1 1 5 1 1.4114582039590198
10 2 -1 -1 8 -1 0.49080813156699915
2 11 -1 -1 2 0 12.9570167016321
11 1 1 1 10 1 -927.8085008601655
5 11 1 1 8 0 0.6873839258766067
11 9 1 -1 9 0 73.27940383221038
5 7 -1 1 6 -1 3.3607223376964077
11 11 1 1 4 -1 -999.8407545306233
10 4 1 1 6 -1 12.653031769179925
6 10 -1 -1 10 1 1.3263421480456117
7 3 -1 1 7 -1 2.621750196438574
2 7 -1 -1 0 0 17.171536056869854
5 0 -1 -1 1 1 7.211609794396335
3 8 1 -1 6 -1 0.07045758905360754
3 4 -1 1 5 0 0.0
6 8 -1 1 3 0 1.1367962971876404
1 5 1 1 4 1 0.049084236129298214
1 9 1 -1 11 -1 0.015048307801400873
1 8 -1 -1 6 -1 37.60700720887963
10 7 -1 1 1 0 0.08978499848002422
11 6 -1 -1 10 1 0.3778552346080812
0 11 -1 -1 4 0 5.686126423425403
5 9 1 1 7 1 0.8297557391958856
8 6 -1 -1 8 -1 1.2558593932374662
10 4 1 1 4 0 6.113362786625566
4 7 -1 -1 2 0 16.8081877738735
11 0 1 -1 8 0 -914.0920675960325
10 4 -1 -1 1 -1 0.0
0 9 1 1 7 0 0.016768069959502186
6 4 1 1 9 -1 2.046118569002016
5 2 1 -1 5 1 -0.13408769904939455
4 6 -1 1 0 0 0.0
6 2 -1 1 8 -1 5.76024295879307
7 0 1 1 7 1 -1.821804433685879
11 8 1 -1 3 1 -999.8387356877923
8 2 -1 1 8 1 1.621440343522779
9 9 -1 -1 4 1 0.0
6 6 -1 -1 4 1 4.277029891199578
11 5 -1 -1 8 0 0.2764581662710363
5 1 -1 1 4 0 7.551699027994628
3 1 -1 1 11 -1 28.575323467387115
7 1 -1 -1 9 -1 2.3039156719517258
9 9 1 1 2 1 -276.54343718198186
4 4 -1 -1 1 0 13.123616544283284
6 8 1 -1 0 1 2.019757229945565
10 1 1 1 6 -1 -314.2725924679027
8 4 -1 -1 10 1 1.4847820466226511
1 1 -1 1 3 -1 21.410604328515426
1 1 -1 1 1 0 37.36855994727749
4 6 -1 -1 2 1 18.37369383021746
1 9 -1 -1 5 -1 12.684468573225436
4 4 1 -1 6 1 -0.027827367223131054
0 1 -1 -1 4 0 152.52533883465043
5 0 1 -1 2 -1 0.15845775828897996
9 3 -1 1 4 0 0.43156136840169085
2 11 1 -1 9 0 0.05357518648781465
3 7 -1 1 4 1 35.795512290837564
7 3 1 -1 6 0 -21.09419387084519
6 5 1 1 6 1 1.635316195010015
10 2 -1 -1 9 1 0.49597073389393415
8 7 1 -1 2 1 5.067639563026169
4 7 1 1 7 1 0.5655879576072406
1 11 -1 1 5 0 66.71436084020492
1 1 -1 1 4 0 33.79569873943351
6 11 -1 -1 5 -1 1.1961258472670517
1 7 1 1 9 1 0.05770131055128883
10 7 1 -1 1 -1 -595.2779950104432
3 4 -1 1 10 -1 84.52162233607288
11 11 -1 1 9 -1 0.11365577115810753
10 2 -1 -1 4 -1 0.3179627134363206
0 1 -1 1 11 0 302.19217543362697
0 1 -1 1 10 1 326.8947560364869
10 6 1 -1 10 1 -620.9311264501797
5 1 -1 1 2 -1 5.718463908392896
2 1 -1 1 4 -1 23.735790194483027
3 10 -1 -1 1 0 5.659702114432755
0 0 -1 -1 0 1 198.14701202451207
11 2 -1 1 3 1 0.0
11 1 1 1 5 -1 -461.9364315235912
4 9 -1 -1 10 0 5.8726768062159005
6 10 1 -1 7 -1 0.9766293665353858
11 7 1 -1 8 -1 56.15195177803388
6 3 -1 1 3 1 4.255627163801898
4 0 -1 -1 5 1 17.865897646231225
10 7 1 -1 9 -1 -61.30792820317359
4 5 -1 1 2 -1 14.955752942809697
7 7 -1 -1 4 -1 1.9614094781478628
9 0 1 1 9 -1 -59.44406121925808
2 7 1 -1 11 1 -0.0030895914179279076
1 0 -1 1 0 -1 74.49825108995823
6 5 -1 -1 8 0 4.077114308369134
2 5 -1 1 2 -1 49.446368815483
0 5 1 1 3 1 0.012869376362601586
1 10 -1 -1 1 0 2.674121854820841
10 4 1 1 8 0 -455.18413506965885
4 6 1 1 9 0 0.7150707493842421
7 11 -1 -1 9 -1 0.717205930941079
8 5 1 -1 11 -1 -148.02085033512606
11 3 1 -1 2 -1 52.76696936071751
8 8 -1 -1 3 1 0.8515179028141
0 11 1 1 8 -1 0.01361719944108138
4 4 -1 -1 3 1 20.249430916861105
